digraph Tree {
node [shape=box, style="rounded", color="black", fontname=helvetica] ;
edge [fontname=helvetica] ;
0 [label="smoker_no <= 0.5\nmse = 153815908.4\nsamples = 621\nvalue = 13712.1"] ;
1 [label="bmi <= 29.9\nmse = 130101278.1\nsamples = 129\nvalue = 33151.5"] ;
0 -> 1 [labeldistance=2.5, labelangle=45, headlabel="True"] ;
2 [label="age <= 39.5\nmse = 32866195.5\nsamples = 58\nvalue = 21705.2"] ;
1 -> 2 ;
3 [label="mse = 11828453.1\nsamples = 36\nvalue = 18317.1"] ;
2 -> 3 ;
4 [label="mse = 28248930.9\nsamples = 22\nvalue = 25686.2"] ;
2 -> 4 ;
5 [label="age <= 27.5\nmse = 35373590.4\nsamples = 71\nvalue = 41519.9"] ;
1 -> 5 ;
6 [label="mse = 3152357.3\nsamples = 21\nvalue = 35510.2"] ;
5 -> 6 ;
7 [label="mse = 24891962.1\nsamples = 50\nvalue = 44449.6"] ;
5 -> 7 ;
8 [label="age <= 44.5\nmse = 37026755.7\nsamples = 492\nvalue = 8687.6"] ;
0 -> 8 [labeldistance=2.5, labelangle=-45, headlabel="False"] ;
9 [label="age <= 22.5\nmse = 22750426.7\nsamples = 290\nvalue = 5662.1"] ;
8 -> 9 ;
10 [label="mse = 20402494.1\nsamples = 78\nvalue = 3096.7"] ;
9 -> 10 ;
11 [label="mse = 20374524.6\nsamples = 212\nvalue = 6585.4"] ;
9 -> 11 ;
12 [label="age <= 58.5\nmse = 26823826.3\nsamples = 202\nvalue = 12838.7"] ;
8 -> 12 ;
13 [label="mse = 24887513.4\nsamples = 153\nvalue = 12031.6"] ;
12 -> 13 ;
14 [label="mse = 25271342.4\nsamples = 49\nvalue = 15113.2"] ;
12 -> 14 ;
}