digraph Tree {
node [shape=box, style="rounded", color="black", fontname=helvetica] ;
edge [fontname=helvetica] ;
0 [label="smoker_no <= 0.5\nmse = 132839143.1\nsamples = 648\nvalue = 12809.4"] ;
1 [label="bmi <= 30.0\nmse = 133543853.8\nsamples = 118\nvalue = 31413.8"] ;
0 -> 1 [labeldistance=2.5, labelangle=45, headlabel="True"] ;
2 [label="age <= 44.5\nmse = 17334023.3\nsamples = 62\nvalue = 20948.3"] ;
1 -> 2 ;
3 [label="mse = 9969732.1\nsamples = 43\nvalue = 19305.5"] ;
2 -> 3 ;
4 [label="mse = 9325054.7\nsamples = 19\nvalue = 25534.5"] ;
2 -> 4 ;
5 [label="age <= 28.5\nmse = 25873059.9\nsamples = 56\nvalue = 42114.5"] ;
1 -> 5 ;
6 [label="mse = 5060820.5\nsamples = 18\nvalue = 35861.8"] ;
5 -> 6 ;
7 [label="mse = 16497895.7\nsamples = 38\nvalue = 44045.5"] ;
5 -> 7 ;
8 [label="age <= 42.5\nmse = 40426383.3\nsamples = 530\nvalue = 8740.3"] ;
0 -> 8 [labeldistance=2.5, labelangle=-45, headlabel="False"] ;
9 [label="children <= 0.5\nmse = 21490217.5\nsamples = 295\nvalue = 5339.4"] ;
8 -> 9 ;
10 [label="mse = 10538392.3\nsamples = 124\nvalue = 3232.3"] ;
9 -> 10 ;
11 [label="mse = 23875682.3\nsamples = 171\nvalue = 6834.2"] ;
9 -> 11 ;
12 [label="age <= 58.5\nmse = 32110721.5\nsamples = 235\nvalue = 12904.3"] ;
8 -> 12 ;
13 [label="mse = 31262939.5\nsamples = 179\nvalue = 12118.0"] ;
12 -> 13 ;
14 [label="mse = 26125866.9\nsamples = 56\nvalue = 15500.9"] ;
12 -> 14 ;
}