digraph Tree {
node [shape=box, style="rounded", color="black", fontname=helvetica] ;
edge [fontname=helvetica] ;
0 [label="smoker_no <= 0.5\nmse = 142830821.8\nsamples = 634\nvalue = 12782.3"] ;
1 [label="bmi <= 30.1\nmse = 136889615.8\nsamples = 134\nvalue = 31561.1"] ;
0 -> 1 [labeldistance=2.5, labelangle=45, headlabel="True"] ;
2 [label="age <= 41.0\nmse = 24930821.2\nsamples = 74\nvalue = 21410.0"] ;
1 -> 2 ;
3 [label="mse = 8381303.9\nsamples = 40\nvalue = 18547.3"] ;
2 -> 3 ;
4 [label="mse = 21797155.6\nsamples = 34\nvalue = 25163.4"] ;
2 -> 4 ;
5 [label="age <= 30.5\nmse = 32538755.2\nsamples = 60\nvalue = 42224.9"] ;
1 -> 5 ;
6 [label="mse = 5479594.6\nsamples = 22\nvalue = 37072.9"] ;
5 -> 6 ;
7 [label="mse = 26730415.7\nsamples = 38\nvalue = 44685.5"] ;
5 -> 7 ;
8 [label="age <= 42.5\nmse = 32148870.0\nsamples = 500\nvalue = 8017.2"] ;
0 -> 8 [labeldistance=2.5, labelangle=-45, headlabel="False"] ;
9 [label="children <= 0.5\nmse = 20428759.7\nsamples = 296\nvalue = 5324.0"] ;
8 -> 9 ;
10 [label="mse = 8015357.9\nsamples = 127\nvalue = 3311.2"] ;
9 -> 10 ;
11 [label="mse = 24437943.1\nsamples = 169\nvalue = 6848.4"] ;
9 -> 11 ;
12 [label="age <= 51.5\nmse = 22795819.2\nsamples = 204\nvalue = 12015.2"] ;
8 -> 12 ;
13 [label="mse = 19093654.7\nsamples = 86\nvalue = 9879.5"] ;
12 -> 13 ;
14 [label="mse = 19866324.6\nsamples = 118\nvalue = 13537.4"] ;
12 -> 14 ;
}