digraph Tree {
node [shape=box, style="rounded", color="black", fontname=helvetica] ;
edge [fontname=helvetica] ;
0 [label="smoker_no <= 0.5\nmse = 158916927.7\nsamples = 635\nvalue = 13404.7"] ;
1 [label="bmi <= 30.0\nmse = 157887694.3\nsamples = 139\nvalue = 32543.5"] ;
0 -> 1 [labeldistance=2.5, labelangle=45, headlabel="True"] ;
2 [label="age <= 44.5\nmse = 25072776.3\nsamples = 68\nvalue = 20871.7"] ;
1 -> 2 ;
3 [label="bmi <= 24.2\nmse = 18475990.9\nsamples = 46\nvalue = 18966.7"] ;
2 -> 3 ;
4 [label="age <= 38.5\nmse = 4540314.4\nsamples = 18\nvalue = 16565.7"] ;
3 -> 4 ;
5 [label="age <= 19.0\nmse = 2891232.8\nsamples = 14\nvalue = 15731.7"] ;
4 -> 5 ;
6 [label="sex_female <= 0.5\nmse = 528529.0\nsamples = 2\nvalue = 13556.5"] ;
5 -> 6 ;
7 [label="mse = 0.0\nsamples = 1\nvalue = 12829.5"] ;
6 -> 7 ;
8 [label="mse = 0.0\nsamples = 1\nvalue = 14283.5"] ;
6 -> 8 ;
9 [label="bmi <= 22.5\nmse = 2182821.7\nsamples = 12\nvalue = 16189.6"] ;
5 -> 9 ;
10 [label="region_southwest <= 0.5\nmse = 1959693.0\nsamples = 9\nvalue = 15835.3"] ;
9 -> 10 ;
11 [label="age <= 26.5\nmse = 814208.6\nsamples = 7\nvalue = 15445.4"] ;
10 -> 11 ;
12 [label="age <= 22.5\nmse = 132839.8\nsamples = 4\nvalue = 14803.6"] ;
11 -> 12 ;
13 [label="children <= 0.5\nmse = 104768.7\nsamples = 2\nvalue = 15035.4"] ;
12 -> 13 ;
14 [label="mse = 0.0\nsamples = 1\nvalue = 14711.7"] ;
13 -> 14 ;
15 [label="mse = 0.0\nsamples = 1\nvalue = 15359.1"] ;
13 -> 15 ;
16 [label="children <= 1.0\nmse = 3003.1\nsamples = 2\nvalue = 14494.4"] ;
12 -> 16 ;
17 [label="mse = 0.0\nsamples = 1\nvalue = 14571.9"] ;
16 -> 17 ;
18 [label="mse = 0.0\nsamples = 1\nvalue = 14455.6"] ;
16 -> 18 ;
19 [label="age <= 28.0\nmse = 23738.7\nsamples = 3\nvalue = 16568.8"] ;
11 -> 19 ;
20 [label="mse = 0.0\nsamples = 1\nvalue = 16420.5"] ;
19 -> 20 ;
21 [label="age <= 31.0\nmse = 3515.3\nsamples = 2\nvalue = 16717.0"] ;
19 -> 21 ;
22 [label="mse = 0.0\nsamples = 1\nvalue = 16657.7"] ;
21 -> 22 ;
23 [label="mse = -0.0\nsamples = 1\nvalue = 16776.3"] ;
21 -> 23 ;
24 [label="sex_female <= 0.5\nmse = 3542489.9\nsamples = 2\nvalue = 16907.4"] ;
10 -> 24 ;
25 [label="mse = -0.0\nsamples = 1\nvalue = 15820.7"] ;
24 -> 25 ;
26 [label="mse = 0.0\nsamples = 1\nvalue = 20167.3"] ;
24 -> 26 ;
27 [label="region_northeast <= 0.5\nmse = 783275.2\nsamples = 3\nvalue = 17518.3"] ;
9 -> 27 ;
28 [label="children <= 2.5\nmse = 198500.4\nsamples = 2\nvalue = 17978.2"] ;
27 -> 28 ;
29 [label="mse = 0.0\nsamples = 1\nvalue = 18608.3"] ;
28 -> 29 ;
30 [label="mse = 0.0\nsamples = 1\nvalue = 17663.1"] ;
28 -> 30 ;
31 [label="mse = -0.0\nsamples = 1\nvalue = 16138.8"] ;
27 -> 31 ;
32 [label="region_northeast <= 0.5\nmse = 164533.8\nsamples = 4\nvalue = 19305.9"] ;
4 -> 32 ;
33 [label="bmi <= 19.2\nmse = 14509.0\nsamples = 2\nvalue = 18852.9"] ;
32 -> 33 ;
34 [label="mse = 0.0\nsamples = 1\nvalue = 19023.3"] ;
33 -> 34 ;
35 [label="mse = -0.0\nsamples = 1\nvalue = 18767.7"] ;
33 -> 35 ;
36 [label="children <= 1.5\nmse = 7745.0\nsamples = 2\nvalue = 19645.6"] ;
32 -> 36 ;
37 [label="mse = 0.0\nsamples = 1\nvalue = 19594.8"] ;
36 -> 37 ;
38 [label="mse = -0.0\nsamples = 1\nvalue = 19798.0"] ;
36 -> 38 ;
39 [label="age <= 19.5\nmse = 21360732.2\nsamples = 28\nvalue = 20567.4"] ;
3 -> 39 ;
40 [label="region_southeast <= 0.5\nmse = 118817.7\nsamples = 7\nvalue = 17335.4"] ;
39 -> 40 ;
41 [label="bmi <= 28.3\nmse = 51401.9\nsamples = 6\nvalue = 17254.6"] ;
40 -> 41 ;
42 [label="region_northeast <= 0.5\nmse = 10170.3\nsamples = 3\nvalue = 17108.8"] ;
41 -> 42 ;
43 [label="bmi <= 28.1\nmse = 8550.8\nsamples = 2\nvalue = 17015.7"] ;
42 -> 43 ;
44 [label="mse = 0.0\nsamples = 1\nvalue = 16884.9"] ;
43 -> 44 ;
45 [label="mse = 0.0\nsamples = 1\nvalue = 17081.1"] ;
43 -> 45 ;
46 [label="mse = 0.0\nsamples = 1\nvalue = 17178.7"] ;
42 -> 46 ;
47 [label="sex_female <= 0.5\nmse = 21250.4\nsamples = 3\nvalue = 17509.8"] ;
41 -> 47 ;
48 [label="mse = 0.0\nsamples = 1\nvalue = 17352.7"] ;
47 -> 48 ;
49 [label="bmi <= 28.6\nmse = 17363.8\nsamples = 2\nvalue = 17562.2"] ;
47 -> 49 ;
50 [label="mse = 0.0\nsamples = 1\nvalue = 17469.0"] ;
49 -> 50 ;
51 [label="mse = -0.0\nsamples = 1\nvalue = 17748.5"] ;
49 -> 51 ;
52 [label="mse = -0.0\nsamples = 1\nvalue = 18223.4"] ;
40 -> 52 ;
53 [label="bmi <= 28.3\nmse = 23905085.9\nsamples = 21\nvalue = 21742.7"] ;
39 -> 53 ;
54 [label="age <= 39.5\nmse = 14388473.6\nsamples = 17\nvalue = 20859.8"] ;
53 -> 54 ;
55 [label="sex_female <= 0.5\nmse = 3431420.4\nsamples = 13\nvalue = 19883.4"] ;
54 -> 55 ;
56 [label="age <= 35.5\nmse = 987032.3\nsamples = 7\nvalue = 19024.4"] ;
55 -> 56 ;
57 [label="bmi <= 27.6\nmse = 450084.0\nsamples = 6\nvalue = 18674.6"] ;
56 -> 57 ;
58 [label="children <= 0.5\nmse = 174673.9\nsamples = 5\nvalue = 18953.1"] ;
57 -> 58 ;
59 [label="mse = 0.0\nsamples = 1\nvalue = 17904.5"] ;
58 -> 59 ;
60 [label="children <= 2.5\nmse = 20119.0\nsamples = 4\nvalue = 19102.9"] ;
58 -> 60 ;
61 [label="bmi <= 26.2\nmse = 877.0\nsamples = 2\nvalue = 18989.6"] ;
60 -> 61 ;
62 [label="mse = -0.0\nsamples = 1\nvalue = 18972.5"] ;
61 -> 62 ;
63 [label="mse = -0.0\nsamples = 1\nvalue = 19040.9"] ;
61 -> 63 ;
64 [label="region_southwest <= 0.5\nmse = 5836.3\nsamples = 2\nvalue = 19254.0"] ;
60 -> 64 ;
65 [label="mse = 0.0\nsamples = 1\nvalue = 19362.0"] ;
64 -> 65 ;
66 [label="mse = -0.0\nsamples = 1\nvalue = 19199.9"] ;
64 -> 66 ;
67 [label="mse = -0.0\nsamples = 1\nvalue = 17560.4"] ;
57 -> 67 ;
68 [label="mse = -0.0\nsamples = 1\nvalue = 20773.6"] ;
56 -> 68 ;
69 [label="age <= 26.0\nmse = 4416590.4\nsamples = 6\nvalue = 20914.2"] ;
55 -> 69 ;
70 [label="mse = 0.0\nsamples = 1\nvalue = 26125.7"] ;
69 -> 70 ;
71 [label="bmi <= 24.7\nmse = 1554362.0\nsamples = 5\nvalue = 20335.2"] ;
69 -> 71 ;
72 [label="mse = 0.0\nsamples = 1\nvalue = 17496.3"] ;
71 -> 72 ;
73 [label="age <= 38.0\nmse = 615323.1\nsamples = 4\nvalue = 20690.1"] ;
71 -> 73 ;
74 [label="region_southeast <= 0.5\nmse = 81485.7\nsamples = 3\nvalue = 20108.1"] ;
73 -> 74 ;
75 [label="region_northwest <= 0.5\nmse = 721.0\nsamples = 2\nvalue = 20250.4"] ;
74 -> 75 ;
76 [label="mse = 0.0\nsamples = 1\nvalue = 20296.9"] ;
75 -> 76 ;
77 [label="mse = -0.0\nsamples = 1\nvalue = 20234.8"] ;
75 -> 77 ;
78 [label="mse = -0.0\nsamples = 1\nvalue = 19539.2"] ;
74 -> 78 ;
79 [label="mse = -0.0\nsamples = 1\nvalue = 21659.9"] ;
73 -> 79 ;
80 [label="region_southeast <= 0.5\nmse = 38252661.9\nsamples = 4\nvalue = 24439.8"] ;
54 -> 80 ;
81 [label="children <= 1.5\nmse = 159012.4\nsamples = 3\nvalue = 21678.6"] ;
80 -> 81 ;
82 [label="bmi <= 26.7\nmse = 69746.1\nsamples = 2\nvalue = 21958.1"] ;
81 -> 82 ;
83 [label="mse = 0.0\nsamples = 1\nvalue = 21771.3"] ;
82 -> 83 ;
84 [label="mse = -0.0\nsamples = 1\nvalue = 22331.6"] ;
82 -> 84 ;
85 [label="mse = -0.0\nsamples = 1\nvalue = 21259.4"] ;
81 -> 85 ;
86 [label="mse = 0.0\nsamples = 1\nvalue = 38245.6"] ;
80 -> 86 ;
87 [label="children <= 0.5\nmse = 48383464.9\nsamples = 4\nvalue = 26687.3"] ;
53 -> 87 ;
88 [label="mse = 0.0\nsamples = 1\nvalue = 35147.5"] ;
87 -> 88 ;
89 [label="age <= 34.5\nmse = 1110972.2\nsamples = 3\nvalue = 21047.2"] ;
87 -> 89 ;
90 [label="region_northwest <= 0.5\nmse = 165051.3\nsamples = 2\nvalue = 20339.7"] ;
89 -> 90 ;
91 [label="mse = 0.0\nsamples = 1\nvalue = 19933.5"] ;
90 -> 91 ;
92 [label="mse = 0.0\nsamples = 1\nvalue = 20746.0"] ;
90 -> 92 ;
93 [label="mse = 0.0\nsamples = 1\nvalue = 22462.0"] ;
89 -> 93 ;
94 [label="age <= 45.5\nmse = 6987047.2\nsamples = 22\nvalue = 25974.2"] ;
2 -> 94 ;
95 [label="mse = 0.0\nsamples = 1\nvalue = 35069.4"] ;
94 -> 95 ;
96 [label="age <= 56.5\nmse = 4068560.2\nsamples = 21\nvalue = 25637.3"] ;
94 -> 96 ;
97 [label="bmi <= 23.8\nmse = 1584737.8\nsamples = 14\nvalue = 24302.2"] ;
96 -> 97 ;
98 [label="children <= 2.0\nmse = 1511988.6\nsamples = 4\nvalue = 22795.4"] ;
97 -> 98 ;
99 [label="bmi <= 23.4\nmse = 96790.2\nsamples = 3\nvalue = 22102.7"] ;
98 -> 99 ;
100 [label="region_northeast <= 0.5\nmse = 9461.5\nsamples = 2\nvalue = 22315.4"] ;
99 -> 100 ;
101 [label="mse = 0.0\nsamples = 1\nvalue = 22218.1"] ;
100 -> 101 ;
102 [label="mse = 0.0\nsamples = 1\nvalue = 22412.6"] ;
100 -> 102 ;
103 [label="mse = 0.0\nsamples = 1\nvalue = 21677.3"] ;
99 -> 103 ;
104 [label="mse = -0.0\nsamples = 1\nvalue = 24873.4"] ;
98 -> 104 ;
105 [label="age <= 53.0\nmse = 599862.6\nsamples = 10\nvalue = 24804.5"] ;
97 -> 105 ;
106 [label="bmi <= 28.9\nmse = 258901.2\nsamples = 8\nvalue = 24450.3"] ;
105 -> 106 ;
107 [label="age <= 49.5\nmse = 187449.4\nsamples = 7\nvalue = 24342.9"] ;
106 -> 107 ;
108 [label="sex_female <= 0.5\nmse = 130467.3\nsamples = 4\nvalue = 24004.5"] ;
107 -> 108 ;
109 [label="region_northwest <= 0.5\nmse = 14276.7\nsamples = 2\nvalue = 23687.8"] ;
108 -> 109 ;
110 [label="mse = 0.0\nsamples = 1\nvalue = 23568.3"] ;
109 -> 110 ;
111 [label="mse = 0.0\nsamples = 1\nvalue = 23807.2"] ;
109 -> 111 ;
112 [label="children <= 2.5\nmse = 45965.2\nsamples = 2\nvalue = 24321.3"] ;
108 -> 112 ;
113 [label="mse = 0.0\nsamples = 1\nvalue = 24535.7"] ;
112 -> 113 ;
114 [label="mse = 0.0\nsamples = 1\nvalue = 24106.9"] ;
112 -> 114 ;
115 [label="sex_female <= 0.5\nmse = 15466.6\nsamples = 3\nvalue = 24681.2"] ;
107 -> 115 ;
116 [label="mse = 0.0\nsamples = 1\nvalue = 24869.8"] ;
115 -> 116 ;
117 [label="children <= 1.5\nmse = 4812.5\nsamples = 2\nvalue = 24618.4"] ;
115 -> 117 ;
118 [label="mse = 0.0\nsamples = 1\nvalue = 24520.3"] ;
117 -> 118 ;
119 [label="mse = 0.0\nsamples = 1\nvalue = 24667.4"] ;
117 -> 119 ;
120 [label="mse = 0.0\nsamples = 1\nvalue = 25309.5"] ;
106 -> 120 ;
121 [label="children <= 2.0\nmse = 117460.6\nsamples = 2\nvalue = 25867.0"] ;
105 -> 121 ;
122 [label="mse = 0.0\nsamples = 1\nvalue = 26109.3"] ;
121 -> 122 ;
123 [label="mse = -0.0\nsamples = 1\nvalue = 25382.3"] ;
121 -> 123 ;
124 [label="bmi <= 29.0\nmse = 1317049.8\nsamples = 7\nvalue = 27579.4"] ;
96 -> 124 ;
125 [label="region_northwest <= 0.5\nmse = 391561.7\nsamples = 4\nvalue = 27064.1"] ;
124 -> 125 ;
126 [label="sex_female <= 0.5\nmse = 134183.3\nsamples = 3\nvalue = 27262.0"] ;
125 -> 126 ;
127 [label="bmi <= 26.4\nmse = 20453.5\nsamples = 2\nvalue = 27043.3"] ;
126 -> 127 ;
128 [label="mse = 0.0\nsamples = 1\nvalue = 26926.5"] ;
127 -> 128 ;
129 [label="mse = -0.0\nsamples = 1\nvalue = 27218.4"] ;
127 -> 129 ;
130 [label="mse = 0.0\nsamples = 1\nvalue = 27808.7"] ;
126 -> 130 ;
131 [label="mse = -0.0\nsamples = 1\nvalue = 25678.8"] ;
125 -> 131 ;
132 [label="age <= 58.0\nmse = 1188990.5\nsamples = 3\nvalue = 28953.4"] ;
124 -> 132 ;
133 [label="mse = 0.0\nsamples = 1\nvalue = 27533.9"] ;
132 -> 133 ;
134 [label="age <= 60.0\nmse = 272264.8\nsamples = 2\nvalue = 29663.2"] ;
132 -> 134 ;
135 [label="mse = 0.0\nsamples = 1\nvalue = 30184.9"] ;
134 -> 135 ;
136 [label="mse = -0.0\nsamples = 1\nvalue = 29141.4"] ;
134 -> 136 ;
137 [label="age <= 27.5\nmse = 39528408.9\nsamples = 71\nvalue = 43277.4"] ;
1 -> 137 ;
138 [label="bmi <= 40.2\nmse = 4832758.5\nsamples = 19\nvalue = 36579.1"] ;
137 -> 138 ;
139 [label="bmi <= 31.6\nmse = 1622705.7\nsamples = 15\nvalue = 35596.9"] ;
138 -> 139 ;
140 [label="bmi <= 30.9\nmse = 259712.3\nsamples = 6\nvalue = 33991.7"] ;
139 -> 140 ;
141 [label="age <= 21.0\nmse = 63856.2\nsamples = 3\nvalue = 33563.6"] ;
140 -> 141 ;
142 [label="bmi <= 30.4\nmse = 7078.7\nsamples = 2\nvalue = 33391.7"] ;
141 -> 142 ;
143 [label="mse = 0.0\nsamples = 1\nvalue = 33307.6"] ;
142 -> 143 ;
144 [label="mse = 0.0\nsamples = 1\nvalue = 33475.8"] ;
142 -> 144 ;
145 [label="mse = 0.0\nsamples = 1\nvalue = 33907.6"] ;
141 -> 145 ;
146 [label="age <= 25.5\nmse = 89123.4\nsamples = 3\nvalue = 34419.7"] ;
140 -> 146 ;
147 [label="region_northeast <= 0.5\nmse = 1926.3\nsamples = 2\nvalue = 34210.2"] ;
146 -> 147 ;
148 [label="mse = 0.0\nsamples = 1\nvalue = 34166.3"] ;
147 -> 148 ;
149 [label="mse = -0.0\nsamples = 1\nvalue = 34254.0"] ;
147 -> 149 ;
150 [label="mse = 0.0\nsamples = 1\nvalue = 34838.9"] ;
146 -> 150 ;
151 [label="region_southwest <= 0.5\nmse = 629198.1\nsamples = 9\nvalue = 36284.9"] ;
139 -> 151 ;
152 [label="age <= 22.5\nmse = 245661.1\nsamples = 6\nvalue = 36730.6"] ;
151 -> 152 ;
153 [label="bmi <= 37.6\nmse = 194626.7\nsamples = 4\nvalue = 36894.5"] ;
152 -> 153 ;
154 [label="age <= 19.5\nmse = 79708.4\nsamples = 3\nvalue = 37129.2"] ;
153 -> 154 ;
155 [label="mse = -0.0\nsamples = 1\nvalue = 36898.7"] ;
154 -> 155 ;
156 [label="age <= 21.0\nmse = 91.3\nsamples = 2\nvalue = 37474.9"] ;
154 -> 156 ;
157 [label="mse = 0.0\nsamples = 1\nvalue = 37465.3"] ;
156 -> 157 ;
158 [label="mse = -0.0\nsamples = 1\nvalue = 37484.4"] ;
156 -> 158 ;
159 [label="mse = -0.0\nsamples = 1\nvalue = 36307.8"] ;
153 -> 159 ;
160 [label="region_northeast <= 0.5\nmse = 1041.0\nsamples = 2\nvalue = 36156.8"] ;
152 -> 160 ;
161 [label="mse = 0.0\nsamples = 1\nvalue = 36124.6"] ;
160 -> 161 ;
162 [label="mse = -0.0\nsamples = 1\nvalue = 36189.1"] ;
160 -> 162 ;
163 [label="age <= 20.5\nmse = 318441.6\nsamples = 3\nvalue = 35482.7"] ;
151 -> 163 ;
164 [label="mse = 0.0\nsamples = 1\nvalue = 34828.6"] ;
163 -> 164 ;
165 [label="age <= 24.0\nmse = 55475.6\nsamples = 2\nvalue = 35918.7"] ;
163 -> 165 ;
166 [label="mse = 0.0\nsamples = 1\nvalue = 35585.6"] ;
165 -> 166 ;
167 [label="mse = 0.0\nsamples = 1\nvalue = 36085.2"] ;
165 -> 167 ;
168 [label="age <= 21.0\nmse = 1599820.6\nsamples = 4\nvalue = 39852.9"] ;
138 -> 168 ;
169 [label="sex_female <= 0.5\nmse = 162189.7\nsamples = 2\nvalue = 39025.2"] ;
168 -> 169 ;
170 [label="mse = 0.0\nsamples = 1\nvalue = 39722.8"] ;
169 -> 170 ;
171 [label="mse = 0.0\nsamples = 1\nvalue = 38792.7"] ;
169 -> 171 ;
172 [label="region_southeast <= 0.5\nmse = 364840.2\nsamples = 2\nvalue = 41508.2"] ;
168 -> 172 ;
173 [label="mse = 0.0\nsamples = 1\nvalue = 40904.2"] ;
172 -> 173 ;
174 [label="mse = -0.0\nsamples = 1\nvalue = 42112.2"] ;
172 -> 174 ;
175 [label="bmi <= 38.1\nmse = 32352142.0\nsamples = 52\nvalue = 45302.5"] ;
137 -> 175 ;
176 [label="age <= 57.0\nmse = 29382519.9\nsamples = 43\nvalue = 44588.6"] ;
175 -> 176 ;
177 [label="region_southwest <= 0.5\nmse = 33711110.8\nsamples = 33\nvalue = 43652.8"] ;
176 -> 177 ;
178 [label="age <= 33.5\nmse = 34924282.4\nsamples = 24\nvalue = 44900.8"] ;
177 -> 178 ;
179 [label="mse = 0.0\nsamples = 1\nvalue = 55135.4"] ;
178 -> 179 ;
180 [label="bmi <= 30.4\nmse = 28933434.1\nsamples = 23\nvalue = 44113.5"] ;
178 -> 180 ;
181 [label="children <= 0.5\nmse = 86946207.0\nsamples = 2\nvalue = 53268.4"] ;
180 -> 181 ;
182 [label="mse = 0.0\nsamples = 1\nvalue = 62592.9"] ;
181 -> 182 ;
183 [label="mse = -0.0\nsamples = 1\nvalue = 43943.9"] ;
181 -> 183 ;
184 [label="age <= 50.5\nmse = 11630196.7\nsamples = 21\nvalue = 43067.2"] ;
180 -> 184 ;
185 [label="age <= 45.5\nmse = 1647669.6\nsamples = 10\nvalue = 41051.9"] ;
184 -> 185 ;
186 [label="children <= 0.5\nmse = 966520.9\nsamples = 5\nvalue = 39723.5"] ;
185 -> 186 ;
187 [label="mse = 0.0\nsamples = 1\nvalue = 37742.6"] ;
186 -> 187 ;
188 [label="region_northeast <= 0.5\nmse = 218073.5\nsamples = 4\nvalue = 40119.7"] ;
186 -> 188 ;
189 [label="bmi <= 32.3\nmse = 11210.7\nsamples = 3\nvalue = 39891.0"] ;
188 -> 189 ;
190 [label="mse = 0.0\nsamples = 1\nvalue = 39725.5"] ;
189 -> 190 ;
191 [label="bmi <= 35.6\nmse = 2774.1\nsamples = 2\nvalue = 39946.2"] ;
189 -> 191 ;
192 [label="mse = 0.0\nsamples = 1\nvalue = 39983.4"] ;
191 -> 192 ;
193 [label="mse = 0.0\nsamples = 1\nvalue = 39871.7"] ;
191 -> 193 ;
194 [label="mse = -0.0\nsamples = 1\nvalue = 41034.2"] ;
188 -> 194 ;
195 [label="age <= 47.5\nmse = 140865.3\nsamples = 5\nvalue = 41937.6"] ;
185 -> 195 ;
196 [label="bmi <= 36.1\nmse = 28789.1\nsamples = 3\nvalue = 42077.9"] ;
195 -> 196 ;
197 [label="age <= 46.5\nmse = 2199.2\nsamples = 2\nvalue = 42144.8"] ;
196 -> 197 ;
198 [label="mse = 0.0\nsamples = 1\nvalue = 42111.7"] ;
197 -> 198 ;
199 [label="mse = 0.0\nsamples = 1\nvalue = 42211.1"] ;
197 -> 199 ;
200 [label="mse = -0.0\nsamples = 1\nvalue = 41676.1"] ;
196 -> 200 ;
201 [label="region_southeast <= 0.5\nmse = 223227.9\nsamples = 2\nvalue = 41446.6"] ;
195 -> 201 ;
202 [label="mse = 0.0\nsamples = 1\nvalue = 41919.1"] ;
201 -> 202 ;
203 [label="mse = -0.0\nsamples = 1\nvalue = 40974.2"] ;
201 -> 203 ;
204 [label="children <= 2.5\nmse = 13786631.0\nsamples = 11\nvalue = 44578.7"] ;
184 -> 204 ;
205 [label="bmi <= 31.3\nmse = 1009026.3\nsamples = 9\nvalue = 43627.6"] ;
204 -> 205 ;
206 [label="region_southeast <= 0.5\nmse = 22204.7\nsamples = 2\nvalue = 42121.2"] ;
205 -> 206 ;
207 [label="mse = 0.0\nsamples = 1\nvalue = 42303.7"] ;
206 -> 207 ;
208 [label="mse = 0.0\nsamples = 1\nvalue = 41999.5"] ;
206 -> 208 ;
209 [label="bmi <= 34.2\nmse = 180090.4\nsamples = 7\nvalue = 44207.0"] ;
205 -> 209 ;
210 [label="age <= 54.5\nmse = 56722.7\nsamples = 3\nvalue = 43723.4"] ;
209 -> 210 ;
211 [label="mse = 0.0\nsamples = 1\nvalue = 43254.4"] ;
210 -> 211 ;
212 [label="children <= 1.0\nmse = 2159.1\nsamples = 2\nvalue = 43840.7"] ;
210 -> 212 ;
213 [label="mse = 0.0\nsamples = 1\nvalue = 43921.2"] ;
212 -> 213 ;
214 [label="mse = 0.0\nsamples = 1\nvalue = 43813.9"] ;
212 -> 214 ;
215 [label="region_northeast <= 0.5\nmse = 19730.6\nsamples = 4\nvalue = 44509.2"] ;
209 -> 215 ;
216 [label="children <= 1.0\nmse = 4610.6\nsamples = 3\nvalue = 44377.2"] ;
215 -> 216 ;
217 [label="bmi <= 36.6\nmse = 121.6\nsamples = 2\nvalue = 44416.0"] ;
216 -> 217 ;
218 [label="mse = 0.0\nsamples = 1\nvalue = 44423.8"] ;
217 -> 218 ;
219 [label="mse = 0.0\nsamples = 1\nvalue = 44400.4"] ;
217 -> 219 ;
220 [label="mse = 0.0\nsamples = 1\nvalue = 44260.8"] ;
216 -> 220 ;
221 [label="mse = -0.0\nsamples = 1\nvalue = 44641.2"] ;
215 -> 221 ;
222 [label="age <= 51.5\nmse = 47377685.1\nsamples = 2\nvalue = 53138.3"] ;
204 -> 222 ;
223 [label="mse = 0.0\nsamples = 1\nvalue = 46255.1"] ;
222 -> 223 ;
224 [label="mse = -0.0\nsamples = 1\nvalue = 60021.4"] ;
222 -> 224 ;
225 [label="age <= 29.0\nmse = 11383603.6\nsamples = 9\nvalue = 39909.0"] ;
177 -> 225 ;
226 [label="mse = 0.0\nsamples = 1\nvalue = 51194.6"] ;
225 -> 226 ;
227 [label="age <= 35.0\nmse = 1708483.5\nsamples = 8\nvalue = 39040.9"] ;
225 -> 227 ;
228 [label="bmi <= 36.5\nmse = 1214934.5\nsamples = 3\nvalue = 37895.8"] ;
227 -> 228 ;
229 [label="sex_female <= 0.5\nmse = 13003.5\nsamples = 2\nvalue = 36998.7"] ;
228 -> 229 ;
230 [label="mse = 0.0\nsamples = 1\nvalue = 36837.5"] ;
229 -> 230 ;
231 [label="mse = -0.0\nsamples = 1\nvalue = 37079.4"] ;
229 -> 231 ;
232 [label="mse = 0.0\nsamples = 1\nvalue = 39241.4"] ;
228 -> 232 ;
233 [label="bmi <= 32.7\nmse = 685202.8\nsamples = 5\nvalue = 39756.6"] ;
227 -> 233 ;
234 [label="age <= 46.5\nmse = 127566.8\nsamples = 2\nvalue = 39290.2"] ;
233 -> 234 ;
235 [label="mse = 0.0\nsamples = 1\nvalue = 38998.6"] ;
234 -> 235 ;
236 [label="mse = 0.0\nsamples = 1\nvalue = 39727.6"] ;
234 -> 236 ;
237 [label="bmi <= 34.7\nmse = 647651.6\nsamples = 3\nvalue = 40534.0"] ;
233 -> 237 ;
238 [label="mse = 0.0\nsamples = 1\nvalue = 41661.6"] ;
237 -> 238 ;
239 [label="bmi <= 35.0\nmse = 17871.7\nsamples = 2\nvalue = 39970.2"] ;
237 -> 239 ;
240 [label="mse = 0.0\nsamples = 1\nvalue = 39836.5"] ;
239 -> 240 ;
241 [label="mse = -0.0\nsamples = 1\nvalue = 40103.9"] ;
239 -> 241 ;
242 [label="bmi <= 32.6\nmse = 2736904.9\nsamples = 10\nvalue = 47671.2"] ;
176 -> 242 ;
243 [label="children <= 1.0\nmse = 1260370.4\nsamples = 3\nvalue = 46383.9"] ;
242 -> 243 ;
244 [label="mse = 0.0\nsamples = 1\nvalue = 45009.0"] ;
243 -> 244 ;
245 [label="bmi <= 31.8\nmse = 45.1\nsamples = 2\nvalue = 47300.6"] ;
243 -> 245 ;
246 [label="mse = 0.0\nsamples = 1\nvalue = 47291.1"] ;
245 -> 246 ;
247 [label="mse = 0.0\nsamples = 1\nvalue = 47305.3"] ;
245 -> 247 ;
248 [label="bmi <= 33.3\nmse = 2374040.6\nsamples = 7\nvalue = 48207.5"] ;
242 -> 248 ;
249 [label="mse = 0.0\nsamples = 1\nvalue = 52590.8"] ;
248 -> 249 ;
250 [label="children <= 0.5\nmse = 684395.6\nsamples = 6\nvalue = 47809.0"] ;
248 -> 250 ;
251 [label="mse = 0.0\nsamples = 1\nvalue = 46599.1"] ;
250 -> 251 ;
252 [label="region_southeast <= 0.5\nmse = 438878.7\nsamples = 5\nvalue = 48077.9"] ;
250 -> 252 ;
253 [label="region_northeast <= 0.5\nmse = 177434.5\nsamples = 4\nvalue = 47890.4"] ;
252 -> 253 ;
254 [label="age <= 62.5\nmse = 61784.2\nsamples = 3\nvalue = 47681.4"] ;
253 -> 254 ;
255 [label="age <= 59.5\nmse = 1905.9\nsamples = 2\nvalue = 47434.8"] ;
254 -> 255 ;
256 [label="mse = 0.0\nsamples = 1\nvalue = 47496.5"] ;
255 -> 256 ;
257 [label="mse = -0.0\nsamples = 1\nvalue = 47403.9"] ;
255 -> 257 ;
258 [label="mse = 0.0\nsamples = 1\nvalue = 47928.0"] ;
254 -> 258 ;
259 [label="mse = 0.0\nsamples = 1\nvalue = 48517.6"] ;
253 -> 259 ;
260 [label="mse = -0.0\nsamples = 1\nvalue = 49577.7"] ;
252 -> 260 ;
261 [label="bmi <= 38.6\nmse = 30095459.5\nsamples = 9\nvalue = 49311.3"] ;
175 -> 261 ;
262 [label="mse = 0.0\nsamples = 1\nvalue = 58571.1"] ;
261 -> 262 ;
263 [label="age <= 39.5\nmse = 5684139.0\nsamples = 8\nvalue = 46533.4"] ;
261 -> 263 ;
264 [label="bmi <= 40.5\nmse = 1989383.3\nsamples = 2\nvalue = 42342.9"] ;
263 -> 264 ;
265 [label="mse = 0.0\nsamples = 1\nvalue = 40932.4"] ;
264 -> 265 ;
266 [label="mse = 0.0\nsamples = 1\nvalue = 43753.3"] ;
264 -> 266 ;
267 [label="sex_female <= 0.5\nmse = 1120305.3\nsamples = 6\nvalue = 47581.0"] ;
263 -> 267 ;
268 [label="bmi <= 42.5\nmse = 418000.6\nsamples = 4\nvalue = 48097.3"] ;
267 -> 268 ;
269 [label="age <= 58.0\nmse = 31125.3\nsamples = 3\nvalue = 48731.6"] ;
268 -> 269 ;
270 [label="region_southeast <= 0.5\nmse = 3990.4\nsamples = 2\nvalue = 48612.4"] ;
269 -> 270 ;
271 [label="mse = 0.0\nsamples = 1\nvalue = 48549.2"] ;
270 -> 271 ;
272 [label="mse = 0.0\nsamples = 1\nvalue = 48675.5"] ;
270 -> 272 ;
273 [label="mse = -0.0\nsamples = 1\nvalue = 48970.2"] ;
269 -> 273 ;
274 [label="mse = 0.0\nsamples = 1\nvalue = 47462.9"] ;
268 -> 274 ;
275 [label="children <= 1.0\nmse = 28523.8\nsamples = 2\nvalue = 46032.1"] ;
267 -> 275 ;
276 [label="mse = 0.0\nsamples = 1\nvalue = 45863.2"] ;
275 -> 276 ;
277 [label="mse = -0.0\nsamples = 1\nvalue = 46201.0"] ;
275 -> 277 ;
278 [label="age <= 42.5\nmse = 31989034.9\nsamples = 496\nvalue = 8182.8"] ;
0 -> 278 [labeldistance=2.5, labelangle=-45, headlabel="False"] ;
279 [label="age <= 27.5\nmse = 16705284.0\nsamples = 283\nvalue = 5238.9"] ;
278 -> 279 ;
280 [label="children <= 1.5\nmse = 16769721.0\nsamples = 121\nvalue = 3535.8"] ;
279 -> 280 ;
281 [label="region_northeast <= 0.5\nmse = 11177377.9\nsamples = 97\nvalue = 3007.6"] ;
280 -> 281 ;
282 [label="bmi <= 19.5\nmse = 7017354.2\nsamples = 78\nvalue = 2674.6"] ;
281 -> 282 ;
283 [label="bmi <= 18.3\nmse = 69719626.1\nsamples = 4\nvalue = 7147.3"] ;
282 -> 283 ;
284 [label="bmi <= 17.7\nmse = 183660.1\nsamples = 3\nvalue = 2331.3"] ;
283 -> 284 ;
285 [label="region_southwest <= 0.5\nmse = 2288.7\nsamples = 2\nvalue = 2633.1"] ;
284 -> 285 ;
286 [label="mse = 0.0\nsamples = 1\nvalue = 2681.0"] ;
285 -> 286 ;
287 [label="mse = 0.0\nsamples = 1\nvalue = 2585.3"] ;
285 -> 287 ;
288 [label="mse = 0.0\nsamples = 1\nvalue = 1727.8"] ;
284 -> 288 ;
289 [label="mse = -0.0\nsamples = 1\nvalue = 21595.4"] ;
283 -> 289 ;
290 [label="sex_female <= 0.5\nmse = 4261359.9\nsamples = 74\nvalue = 2526.8"] ;
282 -> 290 ;
291 [label="age <= 21.5\nmse = 174153.7\nsamples = 41\nvalue = 1804.4"] ;
290 -> 291 ;
292 [label="region_northwest <= 0.5\nmse = 96159.3\nsamples = 27\nvalue = 1603.6"] ;
291 -> 292 ;
293 [label="children <= 0.5\nmse = 71348.6\nsamples = 16\nvalue = 1448.0"] ;
292 -> 293 ;
294 [label="age <= 20.0\nmse = 21416.8\nsamples = 12\nvalue = 1303.0"] ;
293 -> 294 ;
295 [label="region_southeast <= 0.5\nmse = 3233.7\nsamples = 10\nvalue = 1217.4"] ;
294 -> 295 ;
296 [label="bmi <= 23.9\nmse = 62.0\nsamples = 6\nvalue = 1255.0"] ;
295 -> 296 ;
297 [label="mse = 0.0\nsamples = 1\nvalue = 1242.3"] ;
296 -> 297 ;
298 [label="bmi <= 31.4\nmse = 20.5\nsamples = 5\nvalue = 1258.6"] ;
296 -> 298 ;
299 [label="bmi <= 28.2\nmse = 0.5\nsamples = 2\nvalue = 1253.4"] ;
298 -> 299 ;
300 [label="mse = 0.0\nsamples = 1\nvalue = 1252.4"] ;
299 -> 300 ;
301 [label="mse = 0.0\nsamples = 1\nvalue = 1253.9"] ;
299 -> 301 ;
302 [label="bmi <= 34.9\nmse = 0.7\nsamples = 3\nvalue = 1262.4"] ;
298 -> 302 ;
303 [label="bmi <= 34.2\nmse = 0.0\nsamples = 2\nvalue = 1261.6"] ;
302 -> 303 ;
304 [label="mse = 0.0\nsamples = 1\nvalue = 1261.4"] ;
303 -> 304 ;
305 [label="mse = -0.0\nsamples = 1\nvalue = 1261.9"] ;
303 -> 305 ;
306 [label="mse = 0.0\nsamples = 1\nvalue = 1263.2"] ;
302 -> 306 ;
307 [label="bmi <= 28.3\nmse = 40.0\nsamples = 4\nvalue = 1132.8"] ;
295 -> 307 ;
308 [label="mse = 0.0\nsamples = 1\nvalue = 1121.9"] ;
307 -> 308 ;
309 [label="bmi <= 33.9\nmse = 0.2\nsamples = 3\nvalue = 1136.4"] ;
307 -> 309 ;
310 [label="bmi <= 33.5\nmse = 0.1\nsamples = 2\nvalue = 1136.2"] ;
309 -> 310 ;
311 [label="mse = 0.0\nsamples = 1\nvalue = 1135.9"] ;
310 -> 311 ;
312 [label="mse = -0.0\nsamples = 1\nvalue = 1136.4"] ;
310 -> 312 ;
313 [label="mse = 0.0\nsamples = 1\nvalue = 1137.0"] ;
309 -> 313 ;
314 [label="bmi <= 29.4\nmse = 70.4\nsamples = 2\nvalue = 1525.6"] ;
294 -> 314 ;
315 [label="mse = 0.0\nsamples = 1\nvalue = 1515.3"] ;
314 -> 315 ;
316 [label="mse = 0.0\nsamples = 1\nvalue = 1532.5"] ;
314 -> 316 ;
317 [label="region_southwest <= 0.5\nmse = 6616.2\nsamples = 4\nvalue = 1820.9"] ;
293 -> 317 ;
318 [label="mse = 0.0\nsamples = 1\nvalue = 1711.0"] ;
317 -> 318 ;
319 [label="age <= 19.5\nmse = 2501.6\nsamples = 3\nvalue = 1864.9"] ;
317 -> 319 ;
320 [label="bmi <= 26.5\nmse = 7.0\nsamples = 2\nvalue = 1839.9"] ;
319 -> 320 ;
321 [label="mse = 0.0\nsamples = 1\nvalue = 1837.2"] ;
320 -> 321 ;
322 [label="mse = -0.0\nsamples = 1\nvalue = 1842.5"] ;
320 -> 322 ;
323 [label="mse = 0.0\nsamples = 1\nvalue = 1964.8"] ;
319 -> 323 ;
324 [label="children <= 0.5\nmse = 44733.8\nsamples = 11\nvalue = 1832.3"] ;
292 -> 324 ;
325 [label="age <= 20.5\nmse = 18122.4\nsamples = 9\nvalue = 1771.0"] ;
324 -> 325 ;
326 [label="age <= 19.5\nmse = 2100.3\nsamples = 6\nvalue = 1649.1"] ;
325 -> 326 ;
327 [label="bmi <= 25.2\nmse = 32.6\nsamples = 5\nvalue = 1631.9"] ;
326 -> 327 ;
328 [label="bmi <= 21.1\nmse = 1.2\nsamples = 3\nvalue = 1627.1"] ;
327 -> 328 ;
329 [label="mse = 0.0\nsamples = 1\nvalue = 1625.4"] ;
328 -> 329 ;
330 [label="bmi <= 22.2\nmse = 0.3\nsamples = 2\nvalue = 1627.7"] ;
328 -> 330 ;
331 [label="mse = 0.0\nsamples = 1\nvalue = 1627.3"] ;
330 -> 331 ;
332 [label="mse = 0.0\nsamples = 1\nvalue = 1628.5"] ;
330 -> 332 ;
333 [label="bmi <= 29.2\nmse = 3.3\nsamples = 2\nvalue = 1638.3"] ;
327 -> 333 ;
334 [label="mse = 0.0\nsamples = 1\nvalue = 1635.7"] ;
333 -> 334 ;
335 [label="mse = -0.0\nsamples = 1\nvalue = 1639.6"] ;
333 -> 335 ;
336 [label="mse = -0.0\nsamples = 1\nvalue = 1769.5"] ;
326 -> 336 ;
337 [label="bmi <= 34.1\nmse = 20.9\nsamples = 3\nvalue = 1910.4"] ;
325 -> 337 ;
338 [label="bmi <= 30.1\nmse = 2.4\nsamples = 2\nvalue = 1907.6"] ;
337 -> 338 ;
339 [label="mse = 0.0\nsamples = 1\nvalue = 1906.4"] ;
338 -> 339 ;
340 [label="mse = -0.0\nsamples = 1\nvalue = 1909.5"] ;
338 -> 340 ;
341 [label="mse = 0.0\nsamples = 1\nvalue = 1917.3"] ;
337 -> 341 ;
342 [label="bmi <= 29.0\nmse = 4947.0\nsamples = 2\nvalue = 2291.9"] ;
324 -> 342 ;
343 [label="mse = 0.0\nsamples = 1\nvalue = 2221.6"] ;
342 -> 343 ;
344 [label="mse = 0.0\nsamples = 1\nvalue = 2362.2"] ;
342 -> 344 ;
345 [label="age <= 24.5\nmse = 75342.4\nsamples = 14\nvalue = 2226.2"] ;
291 -> 345 ;
346 [label="children <= 0.5\nmse = 69008.9\nsamples = 10\nvalue = 2122.1"] ;
345 -> 346 ;
347 [label="region_northwest <= 0.5\nmse = 22270.4\nsamples = 7\nvalue = 1979.8"] ;
346 -> 347 ;
348 [label="age <= 23.5\nmse = 5477.4\nsamples = 5\nvalue = 1907.7"] ;
347 -> 348 ;
349 [label="bmi <= 29.5\nmse = 21.9\nsamples = 3\nvalue = 1822.3"] ;
348 -> 349 ;
350 [label="mse = 0.0\nsamples = 1\nvalue = 1815.9"] ;
349 -> 350 ;
351 [label="bmi <= 33.5\nmse = 1.6\nsamples = 2\nvalue = 1825.6"] ;
349 -> 351 ;
352 [label="mse = 0.0\nsamples = 1\nvalue = 1824.3"] ;
351 -> 352 ;
353 [label="mse = -0.0\nsamples = 1\nvalue = 1826.8"] ;
351 -> 353 ;
354 [label="bmi <= 26.3\nmse = 12.6\nsamples = 2\nvalue = 1971.7"] ;
348 -> 354 ;
355 [label="mse = 0.0\nsamples = 1\nvalue = 1969.6"] ;
354 -> 355 ;
356 [label="mse = 0.0\nsamples = 1\nvalue = 1977.8"] ;
354 -> 356 ;
357 [label="age <= 23.0\nmse = 20982.4\nsamples = 2\nvalue = 2148.1"] ;
347 -> 357 ;
358 [label="mse = 0.0\nsamples = 1\nvalue = 2045.7"] ;
357 -> 358 ;
359 [label="mse = -0.0\nsamples = 1\nvalue = 2353.0"] ;
357 -> 359 ;
360 [label="region_northwest <= 0.5\nmse = 8745.8\nsamples = 3\nvalue = 2477.8"] ;
346 -> 360 ;
361 [label="region_southwest <= 0.5\nmse = 99.0\nsamples = 2\nvalue = 2424.0"] ;
360 -> 361 ;
362 [label="mse = 0.0\nsamples = 1\nvalue = 2438.1"] ;
361 -> 362 ;
363 [label="mse = 0.0\nsamples = 1\nvalue = 2417.0"] ;
361 -> 363 ;
364 [label="mse = 0.0\nsamples = 1\nvalue = 2639.0"] ;
360 -> 364 ;
365 [label="bmi <= 21.9\nmse = 5826.2\nsamples = 4\nvalue = 2469.1"] ;
345 -> 365 ;
366 [label="mse = 0.0\nsamples = 1\nvalue = 2302.3"] ;
365 -> 366 ;
367 [label="region_southeast <= 0.5\nmse = 315.0\nsamples = 3\nvalue = 2502.4"] ;
365 -> 367 ;
368 [label="mse = 0.0\nsamples = 1\nvalue = 2523.2"] ;
367 -> 368 ;
369 [label="bmi <= 28.4\nmse = 47.8\nsamples = 2\nvalue = 2488.6"] ;
367 -> 369 ;
370 [label="mse = 0.0\nsamples = 1\nvalue = 2483.7"] ;
369 -> 370 ;
371 [label="mse = 0.0\nsamples = 1\nvalue = 2498.4"] ;
369 -> 371 ;
372 [label="bmi <= 33.2\nmse = 7431829.8\nsamples = 33\nvalue = 3285.9"] ;
290 -> 372 ;
373 [label="age <= 25.0\nmse = 441333.2\nsamples = 21\nvalue = 2428.9"] ;
372 -> 373 ;
374 [label="age <= 19.5\nmse = 169577.6\nsamples = 16\nvalue = 2119.7"] ;
373 -> 374 ;
375 [label="children <= 0.5\nmse = 137646.4\nsamples = 10\nvalue = 1902.1"] ;
374 -> 375 ;
376 [label="region_northwest <= 0.5\nmse = 30278.5\nsamples = 8\nvalue = 1744.9"] ;
375 -> 376 ;
377 [label="region_southeast <= 0.5\nmse = 3985.8\nsamples = 6\nvalue = 1674.9"] ;
376 -> 377 ;
378 [label="bmi <= 27.2\nmse = 13.4\nsamples = 3\nvalue = 1743.9"] ;
377 -> 378 ;
379 [label="mse = 0.0\nsamples = 1\nvalue = 1737.4"] ;
378 -> 379 ;
380 [label="bmi <= 31.4\nmse = 3.5\nsamples = 2\nvalue = 1745.5"] ;
378 -> 380 ;
381 [label="mse = 0.0\nsamples = 1\nvalue = 1744.5"] ;
380 -> 381 ;
382 [label="mse = 0.0\nsamples = 1\nvalue = 1748.8"] ;
380 -> 382 ;
383 [label="bmi <= 23.8\nmse = 27.2\nsamples = 3\nvalue = 1617.4"] ;
377 -> 383 ;
384 [label="mse = 0.0\nsamples = 1\nvalue = 1607.5"] ;
383 -> 384 ;
385 [label="bmi <= 28.9\nmse = 9.0\nsamples = 2\nvalue = 1619.4"] ;
383 -> 385 ;
386 [label="mse = 0.0\nsamples = 1\nvalue = 1615.8"] ;
385 -> 386 ;
387 [label="mse = 0.0\nsamples = 1\nvalue = 1621.9"] ;
385 -> 387 ;
388 [label="bmi <= 31.3\nmse = 1.3\nsamples = 2\nvalue = 2129.6"] ;
376 -> 388 ;
389 [label="mse = 0.0\nsamples = 1\nvalue = 2128.4"] ;
388 -> 389 ;
390 [label="mse = 0.0\nsamples = 1\nvalue = 2130.7"] ;
388 -> 390 ;
391 [label="region_southwest <= 0.5\nmse = 31705.0\nsamples = 2\nvalue = 2583.3"] ;
375 -> 391 ;
392 [label="mse = 0.0\nsamples = 1\nvalue = 2709.2"] ;
391 -> 392 ;
393 [label="mse = -0.0\nsamples = 1\nvalue = 2331.5"] ;
391 -> 393 ;
394 [label="age <= 21.0\nmse = 23712.1\nsamples = 6\nvalue = 2467.8"] ;
374 -> 394 ;
395 [label="bmi <= 30.4\nmse = 4.2\nsamples = 2\nvalue = 2259.5"] ;
394 -> 395 ;
396 [label="mse = 0.0\nsamples = 1\nvalue = 2257.5"] ;
395 -> 396 ;
397 [label="mse = 0.0\nsamples = 1\nvalue = 2261.6"] ;
395 -> 397 ;
398 [label="bmi <= 28.8\nmse = 16081.4\nsamples = 4\nvalue = 2519.9"] ;
394 -> 398 ;
399 [label="bmi <= 21.4\nmse = 513.7\nsamples = 3\nvalue = 2472.6"] ;
398 -> 399 ;
400 [label="mse = 0.0\nsamples = 1\nvalue = 2527.8"] ;
399 -> 400 ;
401 [label="region_southwest <= 0.5\nmse = 7.0\nsamples = 2\nvalue = 2463.4"] ;
399 -> 401 ;
402 [label="mse = 0.0\nsamples = 1\nvalue = 2464.6"] ;
401 -> 402 ;
403 [label="mse = 0.0\nsamples = 1\nvalue = 2457.5"] ;
401 -> 403 ;
404 [label="mse = -0.0\nsamples = 1\nvalue = 2850.7"] ;
398 -> 404 ;
405 [label="children <= 0.5\nmse = 151973.1\nsamples = 5\nvalue = 3322.3"] ;
373 -> 405 ;
406 [label="region_southwest <= 0.5\nmse = 21420.4\nsamples = 3\nvalue = 3071.1"] ;
405 -> 406 ;
407 [label="bmi <= 22.0\nmse = 7801.3\nsamples = 2\nvalue = 3265.1"] ;
406 -> 407 ;
408 [label="mse = 0.0\nsamples = 1\nvalue = 3353.5"] ;
407 -> 408 ;
409 [label="mse = -0.0\nsamples = 1\nvalue = 3176.8"] ;
407 -> 409 ;
410 [label="mse = 0.0\nsamples = 1\nvalue = 2974.1"] ;
406 -> 410 ;
411 [label="region_southeast <= 0.5\nmse = 34528.4\nsamples = 2\nvalue = 3824.7"] ;
405 -> 411 ;
412 [label="mse = 0.0\nsamples = 1\nvalue = 3956.1"] ;
411 -> 412 ;
413 [label="mse = 0.0\nsamples = 1\nvalue = 3561.9"] ;
411 -> 413 ;
414 [label="bmi <= 33.9\nmse = 14993635.7\nsamples = 12\nvalue = 4535.6"] ;
372 -> 414 ;
415 [label="region_southeast <= 0.5\nmse = 117885.8\nsamples = 2\nvalue = 11139.3"] ;
414 -> 415 ;
416 [label="mse = 0.0\nsamples = 1\nvalue = 10795.9"] ;
415 -> 416 ;
417 [label="mse = 0.0\nsamples = 1\nvalue = 11482.6"] ;
415 -> 417 ;
418 [label="age <= 24.5\nmse = 570371.7\nsamples = 10\nvalue = 2334.3"] ;
414 -> 418 ;
419 [label="age <= 20.0\nmse = 76609.5\nsamples = 7\nvalue = 1825.9"] ;
418 -> 419 ;
420 [label="children <= 0.5\nmse = 33937.6\nsamples = 5\nvalue = 1710.8"] ;
419 -> 420 ;
421 [label="age <= 18.5\nmse = 1797.4\nsamples = 4\nvalue = 1647.2"] ;
420 -> 421 ;
422 [label="bmi <= 37.5\nmse = 2.0\nsamples = 3\nvalue = 1631.2"] ;
421 -> 422 ;
423 [label="mse = 0.0\nsamples = 1\nvalue = 1629.8"] ;
422 -> 423 ;
424 [label="bmi <= 39.0\nmse = 1.0\nsamples = 2\nvalue = 1632.2"] ;
422 -> 424 ;
425 [label="mse = 0.0\nsamples = 1\nvalue = 1631.7"] ;
424 -> 425 ;
426 [label="mse = 0.0\nsamples = 1\nvalue = 1634.0"] ;
424 -> 426 ;
427 [label="mse = 0.0\nsamples = 1\nvalue = 1759.3"] ;
421 -> 427 ;
428 [label="mse = -0.0\nsamples = 1\nvalue = 2219.4"] ;
420 -> 428 ;
429 [label="age <= 22.5\nmse = 45632.2\nsamples = 2\nvalue = 2171.2"] ;
419 -> 429 ;
430 [label="mse = 0.0\nsamples = 1\nvalue = 2020.2"] ;
429 -> 430 ;
431 [label="mse = -0.0\nsamples = 1\nvalue = 2473.3"] ;
429 -> 431 ;
432 [label="region_southeast <= 0.5\nmse = 7015.2\nsamples = 3\nvalue = 3351.1"] ;
418 -> 432 ;
433 [label="mse = 0.0\nsamples = 1\nvalue = 3410.3"] ;
432 -> 433 ;
434 [label="bmi <= 38.1\nmse = 32.0\nsamples = 2\nvalue = 3232.8"] ;
432 -> 434 ;
435 [label="mse = 0.0\nsamples = 1\nvalue = 3227.1"] ;
434 -> 435 ;
436 [label="mse = 0.0\nsamples = 1\nvalue = 3238.4"] ;
434 -> 436 ;
437 [label="bmi <= 30.2\nmse = 27044935.3\nsamples = 19\nvalue = 4493.9"] ;
281 -> 437 ;
438 [label="bmi <= 29.4\nmse = 43279526.7\nsamples = 11\nvalue = 6308.1"] ;
437 -> 438 ;
439 [label="children <= 0.5\nmse = 10328347.1\nsamples = 9\nvalue = 4144.1"] ;
438 -> 439 ;
440 [label="age <= 23.5\nmse = 199066.3\nsamples = 8\nvalue = 2718.4"] ;
439 -> 440 ;
441 [label="age <= 19.0\nmse = 12734.1\nsamples = 4\nvalue = 2290.1"] ;
440 -> 441 ;
442 [label="bmi <= 26.6\nmse = 4.2\nsamples = 2\nvalue = 2199.4"] ;
441 -> 442 ;
443 [label="mse = 0.0\nsamples = 1\nvalue = 2196.5"] ;
442 -> 443 ;
444 [label="mse = 0.0\nsamples = 1\nvalue = 2200.8"] ;
442 -> 444 ;
445 [label="sex_female <= 0.5\nmse = 962.2\nsamples = 2\nvalue = 2426.2"] ;
441 -> 445 ;
446 [label="mse = 0.0\nsamples = 1\nvalue = 2395.2"] ;
445 -> 446 ;
447 [label="mse = 0.0\nsamples = 1\nvalue = 2457.2"] ;
445 -> 447 ;
448 [label="bmi <= 27.6\nmse = 18518.6\nsamples = 4\nvalue = 3146.7"] ;
440 -> 448 ;
449 [label="bmi <= 25.9\nmse = 0.8\nsamples = 2\nvalue = 3044.8"] ;
448 -> 449 ;
450 [label="mse = 0.0\nsamples = 1\nvalue = 3044.2"] ;
449 -> 450 ;
451 [label="mse = 0.0\nsamples = 1\nvalue = 3046.1"] ;
449 -> 451 ;
452 [label="age <= 25.5\nmse = 7377.1\nsamples = 2\nvalue = 3299.5"] ;
448 -> 452 ;
453 [label="mse = 0.0\nsamples = 1\nvalue = 3213.6"] ;
452 -> 453 ;
454 [label="mse = -0.0\nsamples = 1\nvalue = 3385.4"] ;
452 -> 454 ;
455 [label="mse = 0.0\nsamples = 1\nvalue = 11272.3"] ;
439 -> 455 ;
456 [label="mse = 81420539.6\nsamples = 2\nvalue = 14964.4"] ;
438 -> 456 ;
457 [label="children <= 0.5\nmse = 132684.8\nsamples = 8\nvalue = 2400.5"] ;
437 -> 457 ;
458 [label="age <= 23.5\nmse = 36476.1\nsamples = 7\nvalue = 2309.7"] ;
457 -> 458 ;
459 [label="age <= 20.0\nmse = 22487.4\nsamples = 6\nvalue = 2271.7"] ;
458 -> 459 ;
460 [label="bmi <= 33.0\nmse = 32.9\nsamples = 4\nvalue = 2211.8"] ;
459 -> 460 ;
461 [label="mse = 0.0\nsamples = 1\nvalue = 2203.7"] ;
460 -> 461 ;
462 [label="bmi <= 37.9\nmse = 9.9\nsamples = 3\nvalue = 2215.0"] ;
460 -> 462 ;
463 [label="mse = 0.0\nsamples = 1\nvalue = 2211.1"] ;
462 -> 463 ;
464 [label="bmi <= 40.2\nmse = 0.0\nsamples = 2\nvalue = 2217.6"] ;
462 -> 464 ;
465 [label="mse = 0.0\nsamples = 1\nvalue = 2217.5"] ;
464 -> 465 ;
466 [label="mse = -0.0\nsamples = 1\nvalue = 2217.6"] ;
464 -> 466 ;
467 [label="bmi <= 31.1\nmse = 44496.6\nsamples = 2\nvalue = 2376.6"] ;
459 -> 467 ;
468 [label="mse = 0.0\nsamples = 1\nvalue = 2742.0"] ;
467 -> 468 ;
469 [label="mse = 0.0\nsamples = 1\nvalue = 2254.8"] ;
467 -> 469 ;
470 [label="mse = -0.0\nsamples = 1\nvalue = 2727.4"] ;
458 -> 470 ;
471 [label="mse = 0.0\nsamples = 1\nvalue = 3490.6"] ;
457 -> 471 ;
472 [label="bmi <= 25.4\nmse = 34665437.6\nsamples = 24\nvalue = 5844.7"] ;
280 -> 472 ;
473 [label="bmi <= 24.0\nmse = 56211572.0\nsamples = 7\nvalue = 8471.2"] ;
472 -> 473 ;
474 [label="region_southeast <= 0.5\nmse = 12753961.4\nsamples = 5\nvalue = 5282.9"] ;
473 -> 474 ;
475 [label="bmi <= 21.2\nmse = 390687.0\nsamples = 4\nvalue = 3396.8"] ;
474 -> 475 ;
476 [label="mse = 0.0\nsamples = 1\nvalue = 4827.9"] ;
475 -> 476 ;
477 [label="age <= 23.5\nmse = 57593.9\nsamples = 3\nvalue = 3158.3"] ;
475 -> 477 ;
478 [label="bmi <= 23.6\nmse = 6685.5\nsamples = 2\nvalue = 2995.3"] ;
477 -> 478 ;
479 [label="mse = 0.0\nsamples = 1\nvalue = 2913.6"] ;
478 -> 479 ;
480 [label="mse = 0.0\nsamples = 1\nvalue = 3077.1"] ;
478 -> 480 ;
481 [label="mse = -0.0\nsamples = 1\nvalue = 3484.3"] ;
477 -> 481 ;
482 [label="mse = 0.0\nsamples = 1\nvalue = 11884.0"] ;
474 -> 482 ;
483 [label="age <= 24.0\nmse = 178814.8\nsamples = 2\nvalue = 22818.6"] ;
473 -> 483 ;
484 [label="mse = 0.0\nsamples = 1\nvalue = 22395.7"] ;
483 -> 484 ;
485 [label="mse = -0.0\nsamples = 1\nvalue = 23241.5"] ;
483 -> 485 ;
486 [label="region_northwest <= 0.5\nmse = 20179151.7\nsamples = 17\nvalue = 4640.9"] ;
472 -> 486 ;
487 [label="region_southeast <= 0.5\nmse = 312699.2\nsamples = 13\nvalue = 3650.9"] ;
486 -> 487 ;
488 [label="bmi <= 26.5\nmse = 199284.1\nsamples = 10\nvalue = 3870.4"] ;
487 -> 488 ;
489 [label="mse = 0.0\nsamples = 1\nvalue = 3279.9"] ;
488 -> 489 ;
490 [label="bmi <= 32.8\nmse = 168028.9\nsamples = 9\nvalue = 3961.3"] ;
488 -> 490 ;
491 [label="region_southwest <= 0.5\nmse = 22640.6\nsamples = 4\nvalue = 4511.9"] ;
490 -> 491 ;
492 [label="bmi <= 28.3\nmse = 2161.9\nsamples = 3\nvalue = 4595.6"] ;
491 -> 492 ;
493 [label="mse = 0.0\nsamples = 1\nvalue = 4661.3"] ;
492 -> 493 ;
494 [label="age <= 22.0\nmse = 2.3\nsamples = 2\nvalue = 4562.7"] ;
492 -> 494 ;
495 [label="mse = 0.0\nsamples = 1\nvalue = 4561.2"] ;
494 -> 495 ;
496 [label="mse = 0.0\nsamples = 1\nvalue = 4564.2"] ;
494 -> 496 ;
497 [label="mse = 0.0\nsamples = 1\nvalue = 4260.7"] ;
491 -> 497 ;
498 [label="bmi <= 34.7\nmse = 38063.5\nsamples = 5\nvalue = 3716.6"] ;
490 -> 498 ;
499 [label="bmi <= 34.4\nmse = 858.9\nsamples = 2\nvalue = 3946.5"] ;
498 -> 499 ;
500 [label="mse = 0.0\nsamples = 1\nvalue = 3987.9"] ;
499 -> 500 ;
501 [label="mse = 0.0\nsamples = 1\nvalue = 3925.8"] ;
499 -> 501 ;
502 [label="bmi <= 42.3\nmse = 17038.3\nsamples = 3\nvalue = 3601.7"] ;
498 -> 502 ;
503 [label="children <= 2.5\nmse = 617.5\nsamples = 2\nvalue = 3418.2"] ;
502 -> 503 ;
504 [label="mse = 0.0\nsamples = 1\nvalue = 3393.4"] ;
503 -> 504 ;
505 [label="mse = 0.0\nsamples = 1\nvalue = 3443.1"] ;
503 -> 505 ;
506 [label="mse = 0.0\nsamples = 1\nvalue = 3693.4"] ;
502 -> 506 ;
507 [label="bmi <= 35.7\nmse = 74395.1\nsamples = 3\nvalue = 2992.2"] ;
487 -> 507 ;
508 [label="bmi <= 32.0\nmse = 12204.6\nsamples = 2\nvalue = 2865.0"] ;
507 -> 508 ;
509 [label="mse = 0.0\nsamples = 1\nvalue = 3056.4"] ;
508 -> 509 ;
510 [label="mse = 0.0\nsamples = 1\nvalue = 2801.3"] ;
508 -> 510 ;
511 [label="mse = -0.0\nsamples = 1\nvalue = 3500.6"] ;
507 -> 511 ;
512 [label="age <= 22.5\nmse = 90107582.7\nsamples = 4\nvalue = 9591.0"] ;
486 -> 512 ;
513 [label="mse = 0.0\nsamples = 1\nvalue = 26019.0"] ;
512 -> 513 ;
514 [label="sex_female <= 0.5\nmse = 197285.7\nsamples = 3\nvalue = 4115.0"] ;
512 -> 514 ;
515 [label="mse = 0.0\nsamples = 1\nvalue = 3537.7"] ;
514 -> 515 ;
516 [label="bmi <= 28.5\nmse = 46003.8\nsamples = 2\nvalue = 4403.6"] ;
514 -> 516 ;
517 [label="mse = 0.0\nsamples = 1\nvalue = 4189.1"] ;
516 -> 517 ;
518 [label="mse = 0.0\nsamples = 1\nvalue = 4618.1"] ;
516 -> 518 ;
519 [label="age <= 36.5\nmse = 13103481.4\nsamples = 162\nvalue = 6456.4"] ;
279 -> 519 ;
520 [label="bmi <= 33.3\nmse = 15149254.2\nsamples = 95\nvalue = 5941.9"] ;
519 -> 520 ;
521 [label="age <= 31.5\nmse = 10596047.1\nsamples = 63\nvalue = 5608.7"] ;
520 -> 521 ;
522 [label="children <= 0.5\nmse = 10825060.0\nsamples = 32\nvalue = 5004.2"] ;
521 -> 522 ;
523 [label="age <= 30.0\nmse = 259949.8\nsamples = 10\nvalue = 3761.8"] ;
522 -> 523 ;
524 [label="region_northeast <= 0.5\nmse = 191974.0\nsamples = 7\nvalue = 3432.0"] ;
523 -> 524 ;
525 [label="bmi <= 26.6\nmse = 91649.0\nsamples = 6\nvalue = 3176.2"] ;
524 -> 525 ;
526 [label="region_southwest <= 0.5\nmse = 36706.7\nsamples = 2\nvalue = 3544.9"] ;
525 -> 526 ;
527 [label="mse = 0.0\nsamples = 1\nvalue = 3736.5"] ;
526 -> 527 ;
528 [label="mse = 0.0\nsamples = 1\nvalue = 3353.3"] ;
526 -> 528 ;
529 [label="bmi <= 29.4\nmse = 17169.9\nsamples = 4\nvalue = 2991.8"] ;
525 -> 529 ;
530 [label="region_southwest <= 0.5\nmse = 0.3\nsamples = 2\nvalue = 2866.6"] ;
529 -> 530 ;
531 [label="mse = 0.0\nsamples = 1\nvalue = 2867.1"] ;
530 -> 531 ;
532 [label="mse = 0.0\nsamples = 1\nvalue = 2866.1"] ;
530 -> 532 ;
533 [label="bmi <= 32.0\nmse = 2975.7\nsamples = 2\nvalue = 3117.1"] ;
529 -> 533 ;
534 [label="mse = 0.0\nsamples = 1\nvalue = 3062.5"] ;
533 -> 534 ;
535 [label="mse = -0.0\nsamples = 1\nvalue = 3171.6"] ;
533 -> 535 ;
536 [label="mse = 0.0\nsamples = 1\nvalue = 3943.6"] ;
524 -> 536 ;
537 [label="bmi <= 31.0\nmse = 27658.7\nsamples = 3\nvalue = 4185.9"] ;
523 -> 537 ;
538 [label="region_northwest <= 0.5\nmse = 14316.1\nsamples = 2\nvalue = 4065.0"] ;
537 -> 538 ;
539 [label="mse = 0.0\nsamples = 1\nvalue = 3857.8"] ;
538 -> 539 ;
540 [label="mse = 0.0\nsamples = 1\nvalue = 4134.1"] ;
538 -> 540 ;
541 [label="mse = 0.0\nsamples = 1\nvalue = 4347.0"] ;
537 -> 541 ;
542 [label="bmi <= 24.0\nmse = 14626661.7\nsamples = 22\nvalue = 5572.1"] ;
522 -> 542 ;
543 [label="bmi <= 23.7\nmse = 213353.9\nsamples = 4\nvalue = 4495.8"] ;
542 -> 543 ;
544 [label="age <= 28.5\nmse = 47597.7\nsamples = 3\nvalue = 4773.6"] ;
543 -> 544 ;
545 [label="mse = 0.0\nsamples = 1\nvalue = 4428.9"] ;
544 -> 545 ;
546 [label="age <= 30.0\nmse = 101.9\nsamples = 2\nvalue = 4911.5"] ;
544 -> 546 ;
547 [label="mse = 0.0\nsamples = 1\nvalue = 4906.4"] ;
546 -> 547 ;
548 [label="mse = -0.0\nsamples = 1\nvalue = 4931.6"] ;
546 -> 548 ;
549 [label="mse = 0.0\nsamples = 1\nvalue = 3847.7"] ;
543 -> 549 ;
550 [label="bmi <= 25.1\nmse = 19743240.8\nsamples = 18\nvalue = 6002.7"] ;
542 -> 550 ;
551 [label="region_southwest <= 0.5\nmse = 78088680.8\nsamples = 2\nvalue = 14452.2"] ;
550 -> 551 ;
552 [label="mse = 0.0\nsamples = 1\nvalue = 23288.9"] ;
551 -> 552 ;
553 [label="mse = -0.0\nsamples = 1\nvalue = 5615.4"] ;
551 -> 553 ;
554 [label="region_northwest <= 0.5\nmse = 7921721.0\nsamples = 16\nvalue = 5267.9"] ;
550 -> 554 ;
555 [label="children <= 4.0\nmse = 406794.6\nsamples = 11\nvalue = 4551.5"] ;
554 -> 555 ;
556 [label="region_southwest <= 0.5\nmse = 96658.7\nsamples = 10\nvalue = 4411.0"] ;
555 -> 556 ;
557 [label="bmi <= 28.0\nmse = 20075.7\nsamples = 7\nvalue = 4320.5"] ;
556 -> 557 ;
558 [label="sex_female <= 0.5\nmse = 2127.9\nsamples = 3\nvalue = 4405.6"] ;
557 -> 558 ;
559 [label="children <= 1.5\nmse = 9.4\nsamples = 2\nvalue = 4438.2"] ;
558 -> 559 ;
560 [label="mse = 0.0\nsamples = 1\nvalue = 4441.2"] ;
559 -> 560 ;
561 [label="mse = 0.0\nsamples = 1\nvalue = 4435.1"] ;
559 -> 561 ;
562 [label="mse = -0.0\nsamples = 1\nvalue = 4340.4"] ;
558 -> 562 ;
563 [label="bmi <= 29.1\nmse = 23939.4\nsamples = 4\nvalue = 4247.6"] ;
557 -> 563 ;
564 [label="mse = 0.0\nsamples = 1\nvalue = 4040.6"] ;
563 -> 564 ;
565 [label="bmi <= 33.2\nmse = 9512.4\nsamples = 3\nvalue = 4330.4"] ;
563 -> 565 ;
566 [label="age <= 29.5\nmse = 1835.8\nsamples = 2\nvalue = 4375.2"] ;
565 -> 566 ;
567 [label="mse = 0.0\nsamples = 1\nvalue = 4449.5"] ;
566 -> 567 ;
568 [label="mse = -0.0\nsamples = 1\nvalue = 4350.5"] ;
566 -> 568 ;
569 [label="mse = 0.0\nsamples = 1\nvalue = 4151.0"] ;
565 -> 569 ;
570 [label="bmi <= 31.7\nmse = 239085.4\nsamples = 3\nvalue = 4803.4"] ;
556 -> 570 ;
571 [label="children <= 2.5\nmse = 38210.5\nsamples = 2\nvalue = 5130.2"] ;
570 -> 571 ;
572 [label="mse = 0.0\nsamples = 1\nvalue = 4934.7"] ;
571 -> 572 ;
573 [label="mse = 0.0\nsamples = 1\nvalue = 5325.6"] ;
571 -> 573 ;
574 [label="mse = 0.0\nsamples = 1\nvalue = 4149.7"] ;
570 -> 574 ;
575 [label="mse = -0.0\nsamples = 1\nvalue = 6799.5"] ;
555 -> 575 ;
576 [label="sex_female <= 0.5\nmse = 23640044.2\nsamples = 5\nvalue = 7297.7"] ;
554 -> 576 ;
577 [label="mse = 0.0\nsamples = 1\nvalue = 18157.9"] ;
576 -> 577 ;
578 [label="children <= 1.5\nmse = 61471.7\nsamples = 4\nvalue = 5125.6"] ;
576 -> 578 ;
579 [label="mse = 0.0\nsamples = 1\nvalue = 4738.3"] ;
578 -> 579 ;
580 [label="bmi <= 32.4\nmse = 29949.2\nsamples = 3\nvalue = 5222.5"] ;
578 -> 580 ;
581 [label="children <= 2.5\nmse = 37878.9\nsamples = 2\nvalue = 5117.5"] ;
580 -> 581 ;
582 [label="mse = 0.0\nsamples = 1\nvalue = 4922.9"] ;
581 -> 582 ;
583 [label="mse = 0.0\nsamples = 1\nvalue = 5312.2"] ;
581 -> 583 ;
584 [label="mse = -0.0\nsamples = 1\nvalue = 5327.4"] ;
580 -> 584 ;
585 [label="children <= 1.5\nmse = 9809226.7\nsamples = 31\nvalue = 6131.2"] ;
521 -> 585 ;
586 [label="bmi <= 23.9\nmse = 10165783.5\nsamples = 22\nvalue = 5643.2"] ;
585 -> 586 ;
587 [label="bmi <= 22.4\nmse = 21146398.9\nsamples = 9\nvalue = 6593.4"] ;
586 -> 587 ;
588 [label="age <= 34.5\nmse = 131151.1\nsamples = 6\nvalue = 5042.0"] ;
587 -> 588 ;
589 [label="bmi <= 21.8\nmse = 112782.2\nsamples = 4\nvalue = 4796.7"] ;
588 -> 589 ;
590 [label="children <= 0.5\nmse = 12280.4\nsamples = 3\nvalue = 4610.8"] ;
589 -> 590 ;
591 [label="bmi <= 20.9\nmse = 361.2\nsamples = 2\nvalue = 4533.3"] ;
590 -> 591 ;
592 [label="mse = 0.0\nsamples = 1\nvalue = 4544.2"] ;
591 -> 592 ;
593 [label="mse = 0.0\nsamples = 1\nvalue = 4500.3"] ;
591 -> 593 ;
594 [label="mse = -0.0\nsamples = 1\nvalue = 4766.0"] ;
590 -> 594 ;
595 [label="mse = 0.0\nsamples = 1\nvalue = 5354.1"] ;
589 -> 595 ;
596 [label="sex_female <= 0.5\nmse = 29164.1\nsamples = 2\nvalue = 5287.3"] ;
588 -> 596 ;
597 [label="mse = 0.0\nsamples = 1\nvalue = 5116.5"] ;
596 -> 597 ;
598 [label="mse = 0.0\nsamples = 1\nvalue = 5458.0"] ;
596 -> 598 ;
599 [label="age <= 33.5\nmse = 51926634.4\nsamples = 3\nvalue = 14867.7"] ;
587 -> 599 ;
600 [label="region_northwest <= 0.5\nmse = 4748542.2\nsamples = 2\nvalue = 19805.4"] ;
599 -> 600 ;
601 [label="mse = 0.0\nsamples = 1\nvalue = 17626.2"] ;
600 -> 601 ;
602 [label="mse = -0.0\nsamples = 1\nvalue = 21984.5"] ;
600 -> 602 ;
603 [label="mse = -0.0\nsamples = 1\nvalue = 4992.4"] ;
599 -> 603 ;
604 [label="age <= 33.5\nmse = 192195.0\nsamples = 13\nvalue = 4891.0"] ;
586 -> 604 ;
605 [label="region_northwest <= 0.5\nmse = 14727.0\nsamples = 3\nvalue = 4327.2"] ;
604 -> 605 ;
606 [label="mse = 0.0\nsamples = 1\nvalue = 4185.1"] ;
605 -> 606 ;
607 [label="bmi <= 28.8\nmse = 2106.4\nsamples = 2\nvalue = 4421.9"] ;
605 -> 607 ;
608 [label="mse = 0.0\nsamples = 1\nvalue = 4454.4"] ;
607 -> 608 ;
609 [label="mse = -0.0\nsamples = 1\nvalue = 4357.0"] ;
607 -> 609 ;
610 [label="children <= 0.5\nmse = 133242.9\nsamples = 10\nvalue = 5039.3"] ;
604 -> 610 ;
611 [label="bmi <= 27.0\nmse = 144526.5\nsamples = 4\nvalue = 4721.6"] ;
610 -> 611 ;
612 [label="region_northwest <= 0.5\nmse = 32512.5\nsamples = 2\nvalue = 5138.9"] ;
611 -> 612 ;
613 [label="mse = 0.0\nsamples = 1\nvalue = 4883.9"] ;
612 -> 613 ;
614 [label="mse = -0.0\nsamples = 1\nvalue = 5266.4"] ;
612 -> 614 ;
615 [label="bmi <= 29.6\nmse = 41.8\nsamples = 2\nvalue = 4408.7"] ;
611 -> 615 ;
616 [label="mse = 0.0\nsamples = 1\nvalue = 4415.2"] ;
615 -> 616 ;
617 [label="mse = 0.0\nsamples = 1\nvalue = 4402.2"] ;
615 -> 617 ;
618 [label="bmi <= 28.7\nmse = 33426.7\nsamples = 6\nvalue = 5224.7"] ;
610 -> 618 ;
619 [label="region_northwest <= 0.5\nmse = 2378.0\nsamples = 3\nvalue = 5027.7"] ;
618 -> 619 ;
620 [label="region_southeast <= 0.5\nmse = 0.3\nsamples = 2\nvalue = 5003.3"] ;
619 -> 620 ;
621 [label="mse = 0.0\nsamples = 1\nvalue = 5003.8"] ;
620 -> 621 ;
622 [label="mse = -0.0\nsamples = 1\nvalue = 5002.8"] ;
620 -> 622 ;
623 [label="mse = -0.0\nsamples = 1\nvalue = 5125.2"] ;
619 -> 623 ;
624 [label="bmi <= 30.9\nmse = 8090.1\nsamples = 3\nvalue = 5365.4"] ;
618 -> 624 ;
625 [label="region_northwest <= 0.5\nmse = 2629.9\nsamples = 2\nvalue = 5415.2"] ;
624 -> 625 ;
626 [label="mse = 0.0\nsamples = 1\nvalue = 5478.0"] ;
625 -> 626 ;
627 [label="mse = 0.0\nsamples = 1\nvalue = 5373.4"] ;
625 -> 627 ;
628 [label="mse = -0.0\nsamples = 1\nvalue = 5240.8"] ;
624 -> 628 ;
629 [label="age <= 33.5\nmse = 6491345.9\nsamples = 9\nvalue = 7442.6"] ;
585 -> 629 ;
630 [label="bmi <= 33.0\nmse = 153572.9\nsamples = 5\nvalue = 5603.9"] ;
629 -> 630 ;
631 [label="children <= 3.5\nmse = 82322.1\nsamples = 4\nvalue = 5429.0"] ;
630 -> 631 ;
632 [label="sex_female <= 0.5\nmse = 3469.1\nsamples = 3\nvalue = 5302.9"] ;
631 -> 632 ;
633 [label="region_northwest <= 0.5\nmse = 3.5\nsamples = 2\nvalue = 5254.8"] ;
632 -> 633 ;
634 [label="mse = 0.0\nsamples = 1\nvalue = 5253.5"] ;
633 -> 634 ;
635 [label="mse = -0.0\nsamples = 1\nvalue = 5257.5"] ;
633 -> 635 ;
636 [label="mse = -0.0\nsamples = 1\nvalue = 5375.0"] ;
632 -> 636 ;
637 [label="mse = 0.0\nsamples = 1\nvalue = 6059.2"] ;
631 -> 637 ;
638 [label="mse = 0.0\nsamples = 1\nvalue = 6128.8"] ;
630 -> 638 ;
639 [label="children <= 2.5\nmse = 6067993.7\nsamples = 4\nvalue = 9281.2"] ;
629 -> 639 ;
640 [label="mse = 0.0\nsamples = 1\nvalue = 11737.8"] ;
639 -> 640 ;
641 [label="region_southeast <= 0.5\nmse = 65593.9\nsamples = 3\nvalue = 6824.5"] ;
639 -> 641 ;
642 [label="age <= 35.0\nmse = 9324.3\nsamples = 2\nvalue = 6684.8"] ;
641 -> 642 ;
643 [label="mse = 0.0\nsamples = 1\nvalue = 6753.0"] ;
642 -> 643 ;
644 [label="mse = 0.0\nsamples = 1\nvalue = 6548.2"] ;
642 -> 644 ;
645 [label="mse = 0.0\nsamples = 1\nvalue = 7243.8"] ;
641 -> 645 ;
646 [label="bmi <= 34.0\nmse = 24937326.7\nsamples = 32\nvalue = 6721.9"] ;
520 -> 646 ;
647 [label="age <= 32.5\nmse = 48529508.6\nsamples = 3\nvalue = 13908.8"] ;
646 -> 647 ;
648 [label="children <= 1.0\nmse = 11857.0\nsamples = 2\nvalue = 19596.3"] ;
647 -> 648 ;
649 [label="mse = 0.0\nsamples = 1\nvalue = 19673.3"] ;
648 -> 649 ;
650 [label="mse = 0.0\nsamples = 1\nvalue = 19442.4"] ;
648 -> 650 ;
651 [label="mse = -0.0\nsamples = 1\nvalue = 5377.5"] ;
647 -> 651 ;
652 [label="region_northeast <= 0.5\nmse = 15247820.0\nsamples = 29\nvalue = 5866.4"] ;
646 -> 652 ;
653 [label="age <= 29.5\nmse = 6853751.8\nsamples = 26\nvalue = 5396.7"] ;
652 -> 653 ;
654 [label="children <= 2.5\nmse = 381014.0\nsamples = 6\nvalue = 3775.3"] ;
653 -> 654 ;
655 [label="bmi <= 37.8\nmse = 167398.8\nsamples = 5\nvalue = 3604.9"] ;
654 -> 655 ;
656 [label="sex_female <= 0.5\nmse = 37194.1\nsamples = 3\nvalue = 3841.4"] ;
655 -> 656 ;
657 [label="mse = 0.0\nsamples = 1\nvalue = 4058.1"] ;
656 -> 657 ;
658 [label="region_southeast <= 0.5\nmse = 9796.3\nsamples = 2\nvalue = 3696.9"] ;
656 -> 658 ;
659 [label="mse = 0.0\nsamples = 1\nvalue = 3556.9"] ;
658 -> 659 ;
660 [label="mse = 0.0\nsamples = 1\nvalue = 3766.9"] ;
658 -> 660 ;
661 [label="bmi <= 38.5\nmse = 135862.9\nsamples = 2\nvalue = 3210.8"] ;
655 -> 661 ;
662 [label="mse = 0.0\nsamples = 1\nvalue = 2689.5"] ;
661 -> 662 ;
663 [label="mse = 0.0\nsamples = 1\nvalue = 3471.4"] ;
661 -> 663 ;
664 [label="mse = -0.0\nsamples = 1\nvalue = 5138.3"] ;
654 -> 664 ;
665 [label="age <= 30.5\nmse = 7770289.7\nsamples = 20\nvalue = 5883.1"] ;
653 -> 665 ;
666 [label="mse = 0.0\nsamples = 1\nvalue = 18963.2"] ;
665 -> 666 ;
667 [label="bmi <= 41.1\nmse = 1935197.9\nsamples = 19\nvalue = 5432.1"] ;
665 -> 667 ;
668 [label="region_southeast <= 0.5\nmse = 538364.0\nsamples = 13\nvalue = 5044.1"] ;
667 -> 668 ;
669 [label="sex_female <= 0.5\nmse = 398624.2\nsamples = 8\nvalue = 5411.7"] ;
668 -> 669 ;
670 [label="bmi <= 35.0\nmse = 256105.8\nsamples = 4\nvalue = 4962.3"] ;
669 -> 670 ;
671 [label="mse = 0.0\nsamples = 1\nvalue = 5729.0"] ;
670 -> 671 ;
672 [label="children <= 0.5\nmse = 29350.5\nsamples = 3\nvalue = 4655.6"] ;
670 -> 672 ;
673 [label="mse = 0.0\nsamples = 1\nvalue = 4320.4"] ;
672 -> 673 ;
674 [label="children <= 1.5\nmse = 1576.3\nsamples = 2\nvalue = 4739.4"] ;
672 -> 674 ;
675 [label="mse = 0.0\nsamples = 1\nvalue = 4762.3"] ;
674 -> 675 ;
676 [label="mse = -0.0\nsamples = 1\nvalue = 4670.6"] ;
674 -> 676 ;
677 [label="children <= 1.5\nmse = 54427.6\nsamples = 4\nvalue = 5936.0"] ;
669 -> 677 ;
678 [label="mse = 0.0\nsamples = 1\nvalue = 5630.5"] ;
677 -> 678 ;
679 [label="bmi <= 38.5\nmse = 11646.8\nsamples = 3\nvalue = 6088.7"] ;
677 -> 679 ;
680 [label="region_northwest <= 0.5\nmse = 9515.6\nsamples = 2\nvalue = 6127.5"] ;
679 -> 680 ;
681 [label="mse = 0.0\nsamples = 1\nvalue = 6196.4"] ;
680 -> 681 ;
682 [label="mse = 0.0\nsamples = 1\nvalue = 5989.5"] ;
680 -> 682 ;
683 [label="mse = -0.0\nsamples = 1\nvalue = 5972.4"] ;
679 -> 683 ;
684 [label="sex_female <= 0.5\nmse = 189132.3\nsamples = 5\nvalue = 4446.8"] ;
668 -> 684 ;
685 [label="children <= 1.5\nmse = 145680.9\nsamples = 3\nvalue = 4206.7"] ;
684 -> 685 ;
686 [label="age <= 32.5\nmse = 785.4\nsamples = 2\nvalue = 3895.5"] ;
685 -> 686 ;
687 [label="mse = 0.0\nsamples = 1\nvalue = 3875.7"] ;
686 -> 687 ;
688 [label="mse = 0.0\nsamples = 1\nvalue = 3935.2"] ;
686 -> 688 ;
689 [label="mse = 0.0\nsamples = 1\nvalue = 4673.4"] ;
685 -> 689 ;
690 [label="bmi <= 38.2\nmse = 5277.1\nsamples = 2\nvalue = 4847.0"] ;
684 -> 690 ;
691 [label="mse = 0.0\nsamples = 1\nvalue = 4949.8"] ;
690 -> 691 ;
692 [label="mse = -0.0\nsamples = 1\nvalue = 4795.7"] ;
690 -> 692 ;
693 [label="bmi <= 42.7\nmse = 4169738.1\nsamples = 6\nvalue = 6450.4"] ;
667 -> 693 ;
694 [label="region_southeast <= 0.5\nmse = 5429995.2\nsamples = 2\nvalue = 8996.5"] ;
693 -> 694 ;
695 [label="mse = 0.0\nsamples = 1\nvalue = 6666.2"] ;
694 -> 695 ;
696 [label="mse = 0.0\nsamples = 1\nvalue = 11326.7"] ;
694 -> 696 ;
697 [label="age <= 32.5\nmse = 868601.6\nsamples = 4\nvalue = 5601.7"] ;
693 -> 697 ;
698 [label="sex_female <= 0.5\nmse = 119788.7\nsamples = 2\nvalue = 4340.3"] ;
697 -> 698 ;
699 [label="mse = 0.0\nsamples = 1\nvalue = 4686.4"] ;
698 -> 699 ;
700 [label="mse = 0.0\nsamples = 1\nvalue = 3994.2"] ;
698 -> 700 ;
701 [label="children <= 2.5\nmse = 49550.2\nsamples = 2\nvalue = 6232.5"] ;
697 -> 701 ;
702 [label="mse = 0.0\nsamples = 1\nvalue = 5846.9"] ;
701 -> 702 ;
703 [label="mse = -0.0\nsamples = 1\nvalue = 6361.0"] ;
701 -> 703 ;
704 [label="bmi <= 37.7\nmse = 84219955.5\nsamples = 3\nvalue = 11972.3"] ;
652 -> 704 ;
705 [label="children <= 2.0\nmse = 694497.2\nsamples = 2\nvalue = 5501.0"] ;
704 -> 705 ;
706 [label="mse = 0.0\nsamples = 1\nvalue = 4667.6"] ;
705 -> 706 ;
707 [label="mse = -0.0\nsamples = 1\nvalue = 6334.3"] ;
705 -> 707 ;
708 [label="mse = 0.0\nsamples = 1\nvalue = 24915.0"] ;
704 -> 708 ;
709 [label="bmi <= 29.7\nmse = 9100894.1\nsamples = 67\nvalue = 7218.3"] ;
519 -> 709 ;
710 [label="region_northeast <= 0.5\nmse = 518173.3\nsamples = 36\nvalue = 6667.8"] ;
709 -> 710 ;
711 [label="children <= 0.5\nmse = 316487.8\nsamples = 27\nvalue = 6401.9"] ;
710 -> 711 ;
712 [label="age <= 39.0\nmse = 109392.1\nsamples = 5\nvalue = 5756.0"] ;
711 -> 712 ;
713 [label="region_northwest <= 0.5\nmse = 31575.5\nsamples = 2\nvalue = 5205.8"] ;
712 -> 713 ;
714 [label="mse = 0.0\nsamples = 1\nvalue = 5383.5"] ;
713 -> 714 ;
715 [label="mse = 0.0\nsamples = 1\nvalue = 5028.2"] ;
713 -> 715 ;
716 [label="sex_female <= 0.5\nmse = 810.1\nsamples = 3\nvalue = 5939.4"] ;
712 -> 716 ;
717 [label="region_southeast <= 0.5\nmse = 1.8\nsamples = 2\nvalue = 5967.8"] ;
716 -> 717 ;
718 [label="mse = 0.0\nsamples = 1\nvalue = 5969.7"] ;
717 -> 718 ;
719 [label="mse = 0.0\nsamples = 1\nvalue = 5966.9"] ;
717 -> 719 ;
720 [label="mse = 0.0\nsamples = 1\nvalue = 5910.9"] ;
716 -> 720 ;
721 [label="sex_female <= 0.5\nmse = 234503.3\nsamples = 22\nvalue = 6568.5"] ;
711 -> 721 ;
722 [label="age <= 41.5\nmse = 89340.4\nsamples = 13\nvalue = 6289.8"] ;
721 -> 722 ;
723 [label="children <= 1.5\nmse = 70558.3\nsamples = 12\nvalue = 6255.6"] ;
722 -> 723 ;
724 [label="age <= 38.5\nmse = 76413.2\nsamples = 8\nvalue = 6165.0"] ;
723 -> 724 ;
725 [label="region_northwest <= 0.5\nmse = 34490.1\nsamples = 2\nvalue = 5670.2"] ;
724 -> 725 ;
726 [label="mse = 0.0\nsamples = 1\nvalue = 5484.5"] ;
725 -> 726 ;
727 [label="mse = 0.0\nsamples = 1\nvalue = 5855.9"] ;
725 -> 727 ;
728 [label="bmi <= 27.3\nmse = 26026.8\nsamples = 6\nvalue = 6264.0"] ;
724 -> 728 ;
729 [label="region_northwest <= 0.5\nmse = 5659.7\nsamples = 3\nvalue = 6185.7"] ;
728 -> 729 ;
730 [label="mse = 0.0\nsamples = 1\nvalue = 6272.5"] ;
729 -> 730 ;
731 [label="bmi <= 24.0\nmse = 9.2\nsamples = 2\nvalue = 6120.5"] ;
729 -> 731 ;
732 [label="mse = 0.0\nsamples = 1\nvalue = 6117.5"] ;
731 -> 732 ;
733 [label="mse = -0.0\nsamples = 1\nvalue = 6123.6"] ;
731 -> 733 ;
734 [label="bmi <= 28.6\nmse = 25796.5\nsamples = 3\nvalue = 6446.8"] ;
728 -> 734 ;
735 [label="mse = 0.0\nsamples = 1\nvalue = 6664.7"] ;
734 -> 735 ;
736 [label="region_southwest <= 0.5\nmse = 3100.8\nsamples = 2\nvalue = 6337.9"] ;
734 -> 736 ;
737 [label="mse = 0.0\nsamples = 1\nvalue = 6393.6"] ;
736 -> 737 ;
738 [label="mse = -0.0\nsamples = 1\nvalue = 6282.2"] ;
736 -> 738 ;
739 [label="age <= 37.5\nmse = 22381.1\nsamples = 4\nvalue = 6410.8"] ;
723 -> 739 ;
740 [label="mse = 0.0\nsamples = 1\nvalue = 6198.8"] ;
739 -> 740 ;
741 [label="region_northwest <= 0.5\nmse = 6158.1\nsamples = 3\nvalue = 6495.6"] ;
739 -> 741 ;
742 [label="mse = 0.0\nsamples = 1\nvalue = 6652.5"] ;
741 -> 742 ;
743 [label="bmi <= 28.5\nmse = 0.7\nsamples = 2\nvalue = 6456.4"] ;
741 -> 743 ;
744 [label="mse = -0.0\nsamples = 1\nvalue = 6455.9"] ;
743 -> 744 ;
745 [label="mse = 0.0\nsamples = 1\nvalue = 6457.8"] ;
743 -> 745 ;
746 [label="mse = -0.0\nsamples = 1\nvalue = 6940.9"] ;
722 -> 746 ;
747 [label="bmi <= 29.5\nmse = 100448.0\nsamples = 9\nvalue = 7075.3"] ;
721 -> 747 ;
748 [label="bmi <= 29.2\nmse = 46402.4\nsamples = 8\nvalue = 7151.6"] ;
747 -> 748 ;
749 [label="age <= 40.0\nmse = 22070.8\nsamples = 7\nvalue = 7097.3"] ;
748 -> 749 ;
750 [label="age <= 37.5\nmse = 3082.5\nsamples = 3\nvalue = 7229.0"] ;
749 -> 750 ;
751 [label="mse = 0.0\nsamples = 1\nvalue = 7281.5"] ;
750 -> 751 ;
752 [label="region_southwest <= 0.5\nmse = 640.3\nsamples = 2\nvalue = 7176.4"] ;
750 -> 752 ;
753 [label="mse = 0.0\nsamples = 1\nvalue = 7201.7"] ;
752 -> 753 ;
754 [label="mse = -0.0\nsamples = 1\nvalue = 7151.1"] ;
752 -> 754 ;
755 [label="age <= 41.5\nmse = 12297.8\nsamples = 4\nvalue = 6992.0"] ;
749 -> 755 ;
756 [label="mse = 0.0\nsamples = 1\nvalue = 6770.2"] ;
755 -> 756 ;
757 [label="bmi <= 27.6\nmse = 3.8\nsamples = 3\nvalue = 7047.4"] ;
755 -> 757 ;
758 [label="region_southeast <= 0.5\nmse = 0.3\nsamples = 2\nvalue = 7046.3"] ;
757 -> 758 ;
759 [label="mse = 0.0\nsamples = 1\nvalue = 7045.5"] ;
758 -> 759 ;
760 [label="mse = -0.0\nsamples = 1\nvalue = 7046.7"] ;
758 -> 760 ;
761 [label="mse = 0.0\nsamples = 1\nvalue = 7050.6"] ;
757 -> 761 ;
762 [label="mse = 0.0\nsamples = 1\nvalue = 7640.3"] ;
748 -> 762 ;
763 [label="mse = -0.0\nsamples = 1\nvalue = 6312.0"] ;
747 -> 763 ;
764 [label="bmi <= 22.8\nmse = 274344.3\nsamples = 9\nvalue = 7465.7"] ;
710 -> 764 ;
765 [label="bmi <= 18.6\nmse = 34038.3\nsamples = 5\nvalue = 7016.9"] ;
764 -> 765 ;
766 [label="bmi <= 17.1\nmse = 14094.4\nsamples = 2\nvalue = 6759.3"] ;
765 -> 766 ;
767 [label="mse = 0.0\nsamples = 1\nvalue = 6640.5"] ;
766 -> 767 ;
768 [label="mse = -0.0\nsamples = 1\nvalue = 6878.0"] ;
766 -> 768 ;
769 [label="children <= 2.5\nmse = 4833.7\nsamples = 3\nvalue = 7120.0"] ;
765 -> 769 ;
770 [label="age <= 39.0\nmse = 389.3\nsamples = 2\nvalue = 7153.6"] ;
769 -> 770 ;
771 [label="mse = 0.0\nsamples = 1\nvalue = 7133.9"] ;
770 -> 771 ;
772 [label="mse = 0.0\nsamples = 1\nvalue = 7173.4"] ;
770 -> 772 ;
773 [label="mse = -0.0\nsamples = 1\nvalue = 6985.5"] ;
769 -> 773 ;
774 [label="children <= 2.5\nmse = 45528.9\nsamples = 4\nvalue = 7989.4"] ;
764 -> 774 ;
775 [label="mse = 0.0\nsamples = 1\nvalue = 7729.6"] ;
774 -> 775 ;
776 [label="age <= 39.5\nmse = 17707.0\nsamples = 3\nvalue = 8119.2"] ;
774 -> 776 ;
777 [label="bmi <= 23.0\nmse = 0.1\nsamples = 2\nvalue = 7986.1"] ;
776 -> 777 ;
778 [label="mse = 0.0\nsamples = 1\nvalue = 7985.8"] ;
777 -> 778 ;
779 [label="mse = -0.0\nsamples = 1\nvalue = 7986.5"] ;
777 -> 779 ;
780 [label="mse = 0.0\nsamples = 1\nvalue = 8252.3"] ;
776 -> 780 ;
781 [label="bmi <= 29.8\nmse = 16792937.1\nsamples = 31\nvalue = 7748.4"] ;
709 -> 781 ;
782 [label="mse = 0.0\nsamples = 1\nvalue = 20420.6"] ;
781 -> 782 ;
783 [label="children <= 1.5\nmse = 11024938.1\nsamples = 30\nvalue = 7261.0"] ;
781 -> 783 ;
784 [label="region_northeast <= 0.5\nmse = 462318.0\nsamples = 20\nvalue = 6488.2"] ;
783 -> 784 ;
785 [label="age <= 40.5\nmse = 277793.2\nsamples = 16\nvalue = 6172.8"] ;
784 -> 785 ;
786 [label="bmi <= 30.8\nmse = 127643.4\nsamples = 8\nvalue = 5687.3"] ;
785 -> 786 ;
787 [label="bmi <= 30.2\nmse = 68489.5\nsamples = 2\nvalue = 6238.5"] ;
786 -> 787 ;
788 [label="mse = 0.0\nsamples = 1\nvalue = 6500.2"] ;
787 -> 788 ;
789 [label="mse = 0.0\nsamples = 1\nvalue = 5976.8"] ;
787 -> 789 ;
790 [label="age <= 38.5\nmse = 32935.5\nsamples = 6\nvalue = 5529.8"] ;
786 -> 790 ;
791 [label="region_southeast <= 0.5\nmse = 1467.1\nsamples = 3\nvalue = 5422.0"] ;
790 -> 791 ;
792 [label="mse = 0.0\nsamples = 1\nvalue = 5488.3"] ;
791 -> 792 ;
793 [label="bmi <= 38.9\nmse = 2.5\nsamples = 2\nvalue = 5399.9"] ;
791 -> 793 ;
794 [label="mse = 0.0\nsamples = 1\nvalue = 5397.6"] ;
793 -> 794 ;
795 [label="mse = 0.0\nsamples = 1\nvalue = 5401.0"] ;
793 -> 795 ;
796 [label="bmi <= 38.9\nmse = 38682.0\nsamples = 3\nvalue = 5673.7"] ;
790 -> 796 ;
797 [label="mse = 0.0\nsamples = 1\nvalue = 5920.1"] ;
796 -> 797 ;
798 [label="sex_female <= 0.5\nmse = 12485.8\nsamples = 2\nvalue = 5550.5"] ;
796 -> 798 ;
799 [label="mse = 0.0\nsamples = 1\nvalue = 5438.8"] ;
798 -> 799 ;
800 [label="mse = 0.0\nsamples = 1\nvalue = 5662.2"] ;
798 -> 800 ;
801 [label="children <= 0.5\nmse = 105627.8\nsamples = 8\nvalue = 6508.9"] ;
785 -> 801 ;
802 [label="bmi <= 31.1\nmse = 14528.8\nsamples = 4\nvalue = 6369.4"] ;
801 -> 802 ;
803 [label="mse = 0.0\nsamples = 1\nvalue = 6185.3"] ;
802 -> 803 ;
804 [label="sex_female <= 0.5\nmse = 6229.2\nsamples = 3\nvalue = 6422.0"] ;
802 -> 804 ;
805 [label="mse = 0.0\nsamples = 1\nvalue = 6358.8"] ;
804 -> 805 ;
806 [label="bmi <= 35.4\nmse = 2091.3\nsamples = 2\nvalue = 6506.3"] ;
804 -> 806 ;
807 [label="mse = 0.0\nsamples = 1\nvalue = 6571.0"] ;
806 -> 807 ;
808 [label="mse = 0.0\nsamples = 1\nvalue = 6474.0"] ;
806 -> 808 ;
809 [label="region_northwest <= 0.5\nmse = 168374.2\nsamples = 4\nvalue = 6822.7"] ;
801 -> 809 ;
810 [label="sex_female <= 0.5\nmse = 53122.2\nsamples = 3\nvalue = 6615.7"] ;
809 -> 810 ;
811 [label="mse = 0.0\nsamples = 1\nvalue = 6289.8"] ;
810 -> 811 ;
812 [label="region_southwest <= 0.5\nmse = 7.3\nsamples = 2\nvalue = 6778.7"] ;
810 -> 812 ;
813 [label="mse = 0.0\nsamples = 1\nvalue = 6781.4"] ;
812 -> 813 ;
814 [label="mse = -0.0\nsamples = 1\nvalue = 6776.0"] ;
812 -> 814 ;
815 [label="mse = 0.0\nsamples = 1\nvalue = 7443.6"] ;
809 -> 815 ;
816 [label="age <= 40.5\nmse = 234482.2\nsamples = 4\nvalue = 7119.0"] ;
784 -> 816 ;
817 [label="mse = -0.0\nsamples = 1\nvalue = 6600.2"] ;
816 -> 817 ;
818 [label="age <= 41.5\nmse = 18673.1\nsamples = 3\nvalue = 7551.3"] ;
816 -> 818 ;
819 [label="mse = 0.0\nsamples = 1\nvalue = 7358.2"] ;
818 -> 819 ;
820 [label="bmi <= 37.2\nmse = 24.2\nsamples = 2\nvalue = 7647.9"] ;
818 -> 820 ;
821 [label="mse = 0.0\nsamples = 1\nvalue = 7639.4"] ;
820 -> 821 ;
822 [label="mse = -0.0\nsamples = 1\nvalue = 7650.8"] ;
820 -> 822 ;
823 [label="region_southeast <= 0.5\nmse = 26531608.2\nsamples = 10\nvalue = 8603.3"] ;
783 -> 823 ;
824 [label="bmi <= 35.3\nmse = 194096.2\nsamples = 8\nvalue = 6790.8"] ;
823 -> 824 ;
825 [label="region_northwest <= 0.5\nmse = 116694.9\nsamples = 5\nvalue = 6565.3"] ;
824 -> 825 ;
826 [label="age <= 39.0\nmse = 24465.8\nsamples = 4\nvalue = 6468.1"] ;
825 -> 826 ;
827 [label="sex_female <= 0.5\nmse = 21340.5\nsamples = 3\nvalue = 6379.9"] ;
826 -> 827 ;
828 [label="age <= 37.5\nmse = 16797.2\nsamples = 2\nvalue = 6341.6"] ;
827 -> 828 ;
829 [label="mse = 0.0\nsamples = 1\nvalue = 6406.4"] ;
828 -> 829 ;
830 [label="mse = -0.0\nsamples = 1\nvalue = 6082.4"] ;
828 -> 830 ;
831 [label="mse = -0.0\nsamples = 1\nvalue = 6571.5"] ;
827 -> 831 ;
832 [label="mse = -0.0\nsamples = 1\nvalue = 6600.4"] ;
826 -> 832 ;
833 [label="mse = -0.0\nsamples = 1\nvalue = 7537.2"] ;
825 -> 833 ;
834 [label="sex_female <= 0.5\nmse = 6277.1\nsamples = 3\nvalue = 7287.0"] ;
824 -> 834 ;
835 [label="region_northwest <= 0.5\nmse = 2478.5\nsamples = 2\nvalue = 7230.5"] ;
834 -> 835 ;
836 [label="mse = 0.0\nsamples = 1\nvalue = 7160.1"] ;
835 -> 836 ;
837 [label="mse = 0.0\nsamples = 1\nvalue = 7265.7"] ;
835 -> 837 ;
838 [label="mse = -0.0\nsamples = 1\nvalue = 7371.8"] ;
834 -> 838 ;
839 [label="bmi <= 33.5\nmse = 56041225.8\nsamples = 2\nvalue = 18269.6"] ;
823 -> 839 ;
840 [label="mse = 0.0\nsamples = 1\nvalue = 7682.7"] ;
839 -> 840 ;
841 [label="mse = 0.0\nsamples = 1\nvalue = 23563.0"] ;
839 -> 841 ;
842 [label="age <= 52.5\nmse = 25322984.3\nsamples = 213\nvalue = 12122.6"] ;
278 -> 842 ;
843 [label="bmi <= 24.1\nmse = 19067226.8\nsamples = 97\nvalue = 10372.6"] ;
842 -> 843 ;
844 [label="age <= 48.5\nmse = 1365353.6\nsamples = 12\nvalue = 8573.9"] ;
843 -> 844 ;
845 [label="children <= 0.5\nmse = 877519.6\nsamples = 8\nvalue = 7855.4"] ;
844 -> 845 ;
846 [label="bmi <= 22.8\nmse = 216052.6\nsamples = 3\nvalue = 6818.7"] ;
845 -> 846 ;
847 [label="bmi <= 21.8\nmse = 1273.1\nsamples = 2\nvalue = 7197.6"] ;
846 -> 847 ;
848 [label="mse = 0.0\nsamples = 1\nvalue = 7222.8"] ;
847 -> 848 ;
849 [label="mse = 0.0\nsamples = 1\nvalue = 7147.1"] ;
847 -> 849 ;
850 [label="mse = 0.0\nsamples = 1\nvalue = 6250.4"] ;
846 -> 850 ;
851 [label="sex_female <= 0.5\nmse = 33925.2\nsamples = 5\nvalue = 8595.9"] ;
845 -> 851 ;
852 [label="age <= 44.5\nmse = 10780.6\nsamples = 4\nvalue = 8660.1"] ;
851 -> 852 ;
853 [label="mse = 0.0\nsamples = 1\nvalue = 8891.1"] ;
852 -> 853 ;
854 [label="children <= 1.5\nmse = 124.5\nsamples = 3\nvalue = 8613.9"] ;
852 -> 854 ;
855 [label="mse = 0.0\nsamples = 1\nvalue = 8627.5"] ;
854 -> 855 ;
856 [label="region_southeast <= 0.5\nmse = 0.2\nsamples = 2\nvalue = 8604.8"] ;
854 -> 856 ;
857 [label="mse = 0.0\nsamples = 1\nvalue = 8604.5"] ;
856 -> 857 ;
858 [label="mse = 0.0\nsamples = 1\nvalue = 8605.4"] ;
856 -> 858 ;
859 [label="mse = 0.0\nsamples = 1\nvalue = 8211.1"] ;
851 -> 859 ;
860 [label="bmi <= 22.8\nmse = 161354.2\nsamples = 4\nvalue = 9651.6"] ;
844 -> 860 ;
861 [label="sex_female <= 0.5\nmse = 1490.9\nsamples = 2\nvalue = 9342.0"] ;
860 -> 861 ;
862 [label="mse = 0.0\nsamples = 1\nvalue = 9361.3"] ;
861 -> 862 ;
863 [label="mse = 0.0\nsamples = 1\nvalue = 9264.8"] ;
861 -> 863 ;
864 [label="bmi <= 23.4\nmse = 1822.1\nsamples = 2\nvalue = 10167.6"] ;
860 -> 864 ;
865 [label="mse = 0.0\nsamples = 1\nvalue = 10197.8"] ;
864 -> 865 ;
866 [label="mse = -0.0\nsamples = 1\nvalue = 10107.2"] ;
864 -> 866 ;
867 [label="bmi <= 24.3\nmse = 21067866.0\nsamples = 85\nvalue = 10629.5"] ;
843 -> 867 ;
868 [label="mse = 0.0\nsamples = 1\nvalue = 26236.6"] ;
867 -> 868 ;
869 [label="age <= 46.5\nmse = 17791890.8\nsamples = 84\nvalue = 10403.3"] ;
867 -> 869 ;
870 [label="bmi <= 27.7\nmse = 40160369.1\nsamples = 30\nvalue = 11321.3"] ;
869 -> 870 ;
871 [label="bmi <= 26.7\nmse = 90871495.5\nsamples = 5\nvalue = 16194.0"] ;
870 -> 871 ;
872 [label="age <= 45.0\nmse = 746917.8\nsamples = 3\nvalue = 8018.7"] ;
871 -> 872 ;
873 [label="age <= 43.5\nmse = 19944.0\nsamples = 2\nvalue = 7524.8"] ;
872 -> 873 ;
874 [label="mse = 0.0\nsamples = 1\nvalue = 7325.0"] ;
873 -> 874 ;
875 [label="mse = -0.0\nsamples = 1\nvalue = 7624.6"] ;
873 -> 875 ;
876 [label="mse = -0.0\nsamples = 1\nvalue = 9500.6"] ;
872 -> 876 ;
877 [label="age <= 45.5\nmse = 3103603.4\nsamples = 2\nvalue = 27094.5"] ;
871 -> 877 ;
878 [label="mse = 0.0\nsamples = 1\nvalue = 28340.2"] ;
877 -> 878 ;
879 [label="mse = 0.0\nsamples = 1\nvalue = 24603.0"] ;
877 -> 879 ;
880 [label="region_northeast <= 0.5\nmse = 25639330.8\nsamples = 25\nvalue = 10423.7"] ;
870 -> 880 ;
881 [label="region_southeast <= 0.5\nmse = 9208295.9\nsamples = 20\nvalue = 9214.3"] ;
880 -> 881 ;
882 [label="children <= 1.5\nmse = 382846.9\nsamples = 12\nvalue = 8181.8"] ;
881 -> 882 ;
883 [label="region_northwest <= 0.5\nmse = 151814.9\nsamples = 5\nvalue = 7537.1"] ;
882 -> 883 ;
884 [label="age <= 44.0\nmse = 54123.4\nsamples = 3\nvalue = 7246.6"] ;
883 -> 884 ;
885 [label="mse = 0.0\nsamples = 1\nvalue = 6849.0"] ;
884 -> 885 ;
886 [label="bmi <= 32.8\nmse = 1918.3\nsamples = 2\nvalue = 7379.1"] ;
884 -> 886 ;
887 [label="mse = 0.0\nsamples = 1\nvalue = 7441.0"] ;
886 -> 887 ;
888 [label="mse = -0.0\nsamples = 1\nvalue = 7348.1"] ;
886 -> 888 ;
889 [label="bmi <= 35.8\nmse = 19455.8\nsamples = 2\nvalue = 7924.5"] ;
883 -> 889 ;
890 [label="mse = 0.0\nsamples = 1\nvalue = 7727.2"] ;
889 -> 890 ;
891 [label="mse = 0.0\nsamples = 1\nvalue = 8023.1"] ;
889 -> 891 ;
892 [label="age <= 45.5\nmse = 97136.7\nsamples = 7\nvalue = 8592.0"] ;
882 -> 892 ;
893 [label="sex_female <= 0.5\nmse = 17400.6\nsamples = 4\nvalue = 8442.6"] ;
892 -> 893 ;
894 [label="age <= 43.5\nmse = 19179.3\nsamples = 2\nvalue = 8312.1"] ;
893 -> 894 ;
895 [label="mse = 0.0\nsamples = 1\nvalue = 8410.0"] ;
894 -> 895 ;
896 [label="mse = 0.0\nsamples = 1\nvalue = 8116.3"] ;
894 -> 896 ;
897 [label="bmi <= 32.7\nmse = 0.9\nsamples = 2\nvalue = 8520.8"] ;
893 -> 897 ;
898 [label="mse = 0.0\nsamples = 1\nvalue = 8520.0"] ;
897 -> 898 ;
899 [label="mse = 0.0\nsamples = 1\nvalue = 8522.0"] ;
897 -> 899 ;
900 [label="children <= 2.5\nmse = 91427.6\nsamples = 3\nvalue = 8990.5"] ;
892 -> 900 ;
901 [label="sex_female <= 0.5\nmse = 2027.3\nsamples = 2\nvalue = 8778.3"] ;
900 -> 901 ;
902 [label="mse = 0.0\nsamples = 1\nvalue = 8733.2"] ;
901 -> 902 ;
903 [label="mse = -0.0\nsamples = 1\nvalue = 8823.3"] ;
901 -> 903 ;
904 [label="mse = 0.0\nsamples = 1\nvalue = 9414.9"] ;
900 -> 904 ;
905 [label="age <= 43.5\nmse = 17422124.4\nsamples = 8\nvalue = 10541.9"] ;
881 -> 905 ;
906 [label="mse = 0.0\nsamples = 1\nvalue = 18806.2"] ;
905 -> 906 ;
907 [label="children <= 0.5\nmse = 7045582.2\nsamples = 7\nvalue = 9164.5"] ;
905 -> 907 ;
908 [label="mse = 0.0\nsamples = 1\nvalue = 17929.3"] ;
907 -> 908 ;
909 [label="children <= 1.5\nmse = 67389.4\nsamples = 6\nvalue = 8367.7"] ;
907 -> 909 ;
910 [label="mse = 0.0\nsamples = 1\nvalue = 7633.7"] ;
909 -> 910 ;
911 [label="age <= 44.5\nmse = 14870.2\nsamples = 5\nvalue = 8441.1"] ;
909 -> 911 ;
912 [label="mse = 0.0\nsamples = 1\nvalue = 8219.2"] ;
911 -> 912 ;
913 [label="age <= 45.5\nmse = 3202.3\nsamples = 4\nvalue = 8496.6"] ;
911 -> 913 ;
914 [label="bmi <= 32.4\nmse = 15.7\nsamples = 3\nvalue = 8517.9"] ;
913 -> 914 ;
915 [label="bmi <= 28.2\nmse = 0.3\nsamples = 2\nvalue = 8516.3"] ;
914 -> 915 ;
916 [label="mse = 0.0\nsamples = 1\nvalue = 8515.8"] ;
915 -> 916 ;
917 [label="mse = 0.0\nsamples = 1\nvalue = 8516.8"] ;
915 -> 917 ;
918 [label="mse = 0.0\nsamples = 1\nvalue = 8527.5"] ;
914 -> 918 ;
919 [label="mse = -0.0\nsamples = 1\nvalue = 8347.2"] ;
913 -> 919 ;
920 [label="bmi <= 32.7\nmse = 63867489.7\nsamples = 5\nvalue = 16873.8"] ;
880 -> 920 ;
921 [label="mse = 0.0\nsamples = 1\nvalue = 32108.7"] ;
920 -> 921 ;
922 [label="age <= 43.5\nmse = 20936525.8\nsamples = 4\nvalue = 13826.8"] ;
920 -> 922 ;
923 [label="mse = 0.0\nsamples = 1\nvalue = 19144.6"] ;
922 -> 923 ;
924 [label="bmi <= 38.0\nmse = 3473220.3\nsamples = 3\nvalue = 10281.6"] ;
922 -> 924 ;
925 [label="mse = 0.0\nsamples = 1\nvalue = 12797.2"] ;
924 -> 925 ;
926 [label="age <= 45.5\nmse = 463597.6\nsamples = 2\nvalue = 9023.8"] ;
924 -> 926 ;
927 [label="mse = 0.0\nsamples = 1\nvalue = 9704.7"] ;
926 -> 927 ;
928 [label="mse = -0.0\nsamples = 1\nvalue = 8342.9"] ;
926 -> 928 ;
929 [label="children <= 1.5\nmse = 6363398.7\nsamples = 54\nvalue = 9959.2"] ;
869 -> 929 ;
930 [label="bmi <= 29.7\nmse = 2816318.6\nsamples = 33\nvalue = 9293.5"] ;
929 -> 930 ;
931 [label="bmi <= 29.6\nmse = 6860447.2\nsamples = 13\nvalue = 9730.7"] ;
930 -> 931 ;
932 [label="children <= 0.5\nmse = 258570.6\nsamples = 12\nvalue = 9155.6"] ;
931 -> 932 ;
933 [label="age <= 50.5\nmse = 38356.5\nsamples = 3\nvalue = 8661.8"] ;
932 -> 933 ;
934 [label="region_southeast <= 0.5\nmse = 6818.6\nsamples = 2\nvalue = 8360.1"] ;
933 -> 934 ;
935 [label="mse = 0.0\nsamples = 1\nvalue = 8277.5"] ;
934 -> 935 ;
936 [label="mse = -0.0\nsamples = 1\nvalue = 8442.7"] ;
934 -> 936 ;
937 [label="mse = 0.0\nsamples = 1\nvalue = 8782.5"] ;
933 -> 937 ;
938 [label="age <= 49.5\nmse = 175113.4\nsamples = 9\nvalue = 9421.6"] ;
932 -> 938 ;
939 [label="region_southwest <= 0.5\nmse = 54602.1\nsamples = 5\nvalue = 9134.6"] ;
938 -> 939 ;
940 [label="age <= 47.5\nmse = 32056.9\nsamples = 4\nvalue = 9196.2"] ;
939 -> 940 ;
941 [label="mse = 0.0\nsamples = 1\nvalue = 8930.9"] ;
940 -> 941 ;
942 [label="region_northeast <= 0.5\nmse = 5481.9\nsamples = 3\nvalue = 9302.3"] ;
940 -> 942 ;
943 [label="mse = 0.0\nsamples = 1\nvalue = 9249.5"] ;
942 -> 943 ;
944 [label="bmi <= 26.6\nmse = 6042.7\nsamples = 2\nvalue = 9337.4"] ;
942 -> 944 ;
945 [label="mse = 0.0\nsamples = 1\nvalue = 9282.5"] ;
944 -> 945 ;
946 [label="mse = 0.0\nsamples = 1\nvalue = 9447.4"] ;
944 -> 946 ;
947 [label="mse = -0.0\nsamples = 1\nvalue = 8703.5"] ;
939 -> 947 ;
948 [label="bmi <= 27.3\nmse = 25343.1\nsamples = 4\nvalue = 9880.7"] ;
938 -> 948 ;
949 [label="age <= 50.5\nmse = 13350.9\nsamples = 2\nvalue = 9942.7"] ;
948 -> 949 ;
950 [label="mse = 0.0\nsamples = 1\nvalue = 10106.1"] ;
949 -> 950 ;
951 [label="mse = 0.0\nsamples = 1\nvalue = 9861.0"] ;
949 -> 951 ;
952 [label="age <= 50.5\nmse = 28910.2\nsamples = 2\nvalue = 9787.7"] ;
948 -> 952 ;
953 [label="mse = 0.0\nsamples = 1\nvalue = 9617.7"] ;
952 -> 953 ;
954 [label="mse = 0.0\nsamples = 1\nvalue = 9957.7"] ;
952 -> 954 ;
955 [label="mse = 0.0\nsamples = 1\nvalue = 21232.2"] ;
931 -> 955 ;
956 [label="age <= 49.5\nmse = 596894.8\nsamples = 20\nvalue = 9069.6"] ;
930 -> 956 ;
957 [label="region_northwest <= 0.5\nmse = 117351.3\nsamples = 8\nvalue = 8291.0"] ;
956 -> 957 ;
958 [label="sex_female <= 0.5\nmse = 65617.5\nsamples = 6\nvalue = 8140.7"] ;
957 -> 958 ;
959 [label="bmi <= 30.0\nmse = 22629.2\nsamples = 4\nvalue = 7961.9"] ;
958 -> 959 ;
960 [label="mse = 0.0\nsamples = 1\nvalue = 7789.6"] ;
959 -> 960 ;
961 [label="bmi <= 31.3\nmse = 659.2\nsamples = 3\nvalue = 8091.1"] ;
959 -> 961 ;
962 [label="mse = 0.0\nsamples = 1\nvalue = 8116.7"] ;
961 -> 962 ;
963 [label="bmi <= 34.2\nmse = 7.4\nsamples = 2\nvalue = 8065.5"] ;
961 -> 963 ;
964 [label="mse = 0.0\nsamples = 1\nvalue = 8062.8"] ;
963 -> 964 ;
965 [label="mse = -0.0\nsamples = 1\nvalue = 8068.2"] ;
963 -> 965 ;
966 [label="age <= 47.5\nmse = 18320.7\nsamples = 2\nvalue = 8391.1"] ;
958 -> 966 ;
967 [label="mse = 0.0\nsamples = 1\nvalue = 8556.9"] ;
966 -> 967 ;
968 [label="mse = 0.0\nsamples = 1\nvalue = 8280.6"] ;
966 -> 968 ;
969 [label="bmi <= 34.4\nmse = 1658.9\nsamples = 2\nvalue = 8741.7"] ;
957 -> 969 ;
970 [label="mse = 0.0\nsamples = 1\nvalue = 8765.2"] ;
969 -> 970 ;
971 [label="mse = -0.0\nsamples = 1\nvalue = 8671.2"] ;
969 -> 971 ;
972 [label="bmi <= 31.2\nmse = 267507.6\nsamples = 12\nvalue = 9567.9"] ;
956 -> 972 ;
973 [label="mse = 0.0\nsamples = 1\nvalue = 10797.3"] ;
972 -> 973 ;
974 [label="bmi <= 37.2\nmse = 69763.6\nsamples = 11\nvalue = 9400.3"] ;
972 -> 974 ;
975 [label="bmi <= 36.9\nmse = 25635.6\nsamples = 5\nvalue = 9137.1"] ;
974 -> 975 ;
976 [label="children <= 0.5\nmse = 7630.8\nsamples = 4\nvalue = 9193.5"] ;
975 -> 976 ;
977 [label="bmi <= 32.9\nmse = 247.3\nsamples = 3\nvalue = 9155.0"] ;
976 -> 977 ;
978 [label="mse = 0.0\nsamples = 1\nvalue = 9174.1"] ;
977 -> 978 ;
979 [label="bmi <= 35.4\nmse = 2.9\nsamples = 2\nvalue = 9142.2"] ;
977 -> 979 ;
980 [label="mse = 0.0\nsamples = 1\nvalue = 9141.0"] ;
979 -> 980 ;
981 [label="mse = 0.0\nsamples = 1\nvalue = 9144.6"] ;
979 -> 981 ;
982 [label="mse = 0.0\nsamples = 1\nvalue = 9386.2"] ;
976 -> 982 ;
983 [label="mse = 0.0\nsamples = 1\nvalue = 8798.6"] ;
975 -> 983 ;
984 [label="age <= 51.5\nmse = 42949.1\nsamples = 6\nvalue = 9523.1"] ;
974 -> 984 ;
985 [label="sex_female <= 0.5\nmse = 41188.3\nsamples = 4\nvalue = 9363.0"] ;
984 -> 985 ;
986 [label="region_southwest <= 0.5\nmse = 27659.0\nsamples = 2\nvalue = 9225.0"] ;
985 -> 986 ;
987 [label="mse = 0.0\nsamples = 1\nvalue = 9058.7"] ;
986 -> 987 ;
988 [label="mse = -0.0\nsamples = 1\nvalue = 9391.4"] ;
986 -> 988 ;
989 [label="region_northeast <= 0.5\nmse = 13.8\nsamples = 2\nvalue = 9546.9"] ;
985 -> 989 ;
990 [label="mse = 0.0\nsamples = 1\nvalue = 9549.6"] ;
989 -> 990 ;
991 [label="mse = 0.0\nsamples = 1\nvalue = 9541.7"] ;
989 -> 991 ;
992 [label="region_southeast <= 0.5\nmse = 2452.6\nsamples = 2\nvalue = 9663.1"] ;
984 -> 992 ;
993 [label="mse = 0.0\nsamples = 1\nvalue = 9634.5"] ;
992 -> 993 ;
994 [label="mse = 0.0\nsamples = 1\nvalue = 9748.9"] ;
992 -> 994 ;
995 [label="bmi <= 36.7\nmse = 10799090.6\nsamples = 21\nvalue = 11290.4"] ;
929 -> 995 ;
996 [label="region_southeast <= 0.5\nmse = 3333987.2\nsamples = 18\nvalue = 10840.2"] ;
995 -> 996 ;
997 [label="children <= 3.5\nmse = 423055.5\nsamples = 16\nvalue = 10502.8"] ;
996 -> 997 ;
998 [label="age <= 50.5\nmse = 317562.0\nsamples = 12\nvalue = 10263.0"] ;
997 -> 998 ;
999 [label="region_northwest <= 0.5\nmse = 160982.1\nsamples = 8\nvalue = 10004.1"] ;
998 -> 999 ;
1000 [label="sex_female <= 0.5\nmse = 81358.5\nsamples = 4\nvalue = 9633.5"] ;
999 -> 1000 ;
1001 [label="region_northeast <= 0.5\nmse = 28215.2\nsamples = 3\nvalue = 9512.3"] ;
1000 -> 1001 ;
1002 [label="bmi <= 33.3\nmse = 1008.6\nsamples = 2\nvalue = 9607.9"] ;
1001 -> 1002 ;
1003 [label="mse = 0.0\nsamples = 1\nvalue = 9630.4"] ;
1002 -> 1003 ;
1004 [label="mse = -0.0\nsamples = 1\nvalue = 9563.0"] ;
1002 -> 1004 ;
1005 [label="mse = -0.0\nsamples = 1\nvalue = 9225.3"] ;
1001 -> 1005 ;
1006 [label="mse = 0.0\nsamples = 1\nvalue = 10118.4"] ;
1000 -> 1006 ;
1007 [label="age <= 48.5\nmse = 86501.4\nsamples = 4\nvalue = 10210.0"] ;
999 -> 1007 ;
1008 [label="bmi <= 31.9\nmse = 33987.3\nsamples = 2\nvalue = 10032.6"] ;
1007 -> 1008 ;
1009 [label="mse = 0.0\nsamples = 1\nvalue = 9620.3"] ;
1008 -> 1009 ;
1010 [label="mse = 0.0\nsamples = 1\nvalue = 10115.0"] ;
1008 -> 1010 ;
1011 [label="sex_female <= 0.5\nmse = 2525.2\nsamples = 2\nvalue = 10565.0"] ;
1007 -> 1011 ;
1012 [label="mse = 0.0\nsamples = 1\nvalue = 10600.6"] ;
1011 -> 1012 ;
1013 [label="mse = 0.0\nsamples = 1\nvalue = 10494.0"] ;
1011 -> 1013 ;
1014 [label="bmi <= 33.0\nmse = 43146.5\nsamples = 4\nvalue = 10987.7"] ;
998 -> 1014 ;
1015 [label="children <= 2.5\nmse = 2573.0\nsamples = 2\nvalue = 11238.4"] ;
1014 -> 1015 ;
1016 [label="mse = 0.0\nsamples = 1\nvalue = 11187.7"] ;
1015 -> 1016 ;
1017 [label="mse = 0.0\nsamples = 1\nvalue = 11289.1"] ;
1015 -> 1017 ;
1018 [label="region_southwest <= 0.5\nmse = 378.9\nsamples = 2\nvalue = 10820.6"] ;
1014 -> 1018 ;
1019 [label="mse = 0.0\nsamples = 1\nvalue = 10848.1"] ;
1018 -> 1019 ;
1020 [label="mse = 0.0\nsamples = 1\nvalue = 10806.8"] ;
1018 -> 1020 ;
1021 [label="age <= 47.5\nmse = 129532.5\nsamples = 4\nvalue = 11153.8"] ;
997 -> 1021 ;
1022 [label="mse = 0.0\nsamples = 1\nvalue = 10407.1"] ;
1021 -> 1022 ;
1023 [label="age <= 49.0\nmse = 42715.8\nsamples = 3\nvalue = 11278.2"] ;
1021 -> 1023 ;
1024 [label="mse = 0.0\nsamples = 1\nvalue = 11015.2"] ;
1023 -> 1024 ;
1025 [label="region_northwest <= 0.5\nmse = 12183.7\nsamples = 2\nvalue = 11409.7"] ;
1023 -> 1025 ;
1026 [label="mse = 0.0\nsamples = 1\nvalue = 11299.3"] ;
1025 -> 1026 ;
1027 [label="mse = -0.0\nsamples = 1\nvalue = 11520.1"] ;
1025 -> 1027 ;
1028 [label="bmi <= 28.0\nmse = 20460876.2\nsamples = 2\nvalue = 15226.0"] ;
996 -> 1028 ;
1029 [label="mse = 0.0\nsamples = 1\nvalue = 19749.4"] ;
1028 -> 1029 ;
1030 [label="mse = 0.0\nsamples = 1\nvalue = 10702.6"] ;
1028 -> 1030 ;
1031 [label="bmi <= 37.0\nmse = 60919777.8\nsamples = 3\nvalue = 15493.0"] ;
995 -> 1031 ;
1032 [label="mse = 0.0\nsamples = 1\nvalue = 26467.1"] ;
1031 -> 1032 ;
1033 [label="region_northwest <= 0.5\nmse = 1056239.2\nsamples = 2\nvalue = 10005.9"] ;
1031 -> 1033 ;
1034 [label="mse = 0.0\nsamples = 1\nvalue = 8978.2"] ;
1033 -> 1034 ;
1035 [label="mse = 0.0\nsamples = 1\nvalue = 11033.7"] ;
1033 -> 1035 ;
1036 [label="children <= 0.5\nmse = 25707132.8\nsamples = 116\nvalue = 13704.5"] ;
842 -> 1036 ;
1037 [label="age <= 58.5\nmse = 10551460.0\nsamples = 70\nvalue = 12796.2"] ;
1036 -> 1037 ;
1038 [label="age <= 53.5\nmse = 11081692.0\nsamples = 41\nvalue = 11884.6"] ;
1037 -> 1038 ;
1039 [label="bmi <= 30.4\nmse = 62658274.3\nsamples = 4\nvalue = 14842.8"] ;
1038 -> 1039 ;
1040 [label="region_southeast <= 0.5\nmse = 167427.6\nsamples = 2\nvalue = 10066.3"] ;
1039 -> 1040 ;
1041 [label="mse = 0.0\nsamples = 1\nvalue = 10355.6"] ;
1040 -> 1041 ;
1042 [label="mse = 0.0\nsamples = 1\nvalue = 9487.6"] ;
1040 -> 1042 ;
1043 [label="bmi <= 36.4\nmse = 79581832.3\nsamples = 2\nvalue = 18425.2"] ;
1039 -> 1043 ;
1044 [label="mse = 0.0\nsamples = 1\nvalue = 27346.0"] ;
1043 -> 1044 ;
1045 [label="mse = 0.0\nsamples = 1\nvalue = 9504.3"] ;
1043 -> 1045 ;
1046 [label="bmi <= 37.2\nmse = 3403998.1\nsamples = 37\nvalue = 11514.8"] ;
1038 -> 1046 ;
1047 [label="age <= 55.5\nmse = 341502.6\nsamples = 28\nvalue = 11164.2"] ;
1046 -> 1047 ;
1048 [label="bmi <= 29.9\nmse = 225669.8\nsamples = 9\nvalue = 10563.9"] ;
1047 -> 1048 ;
1049 [label="sex_female <= 0.5\nmse = 37103.4\nsamples = 3\nvalue = 11147.7"] ;
1048 -> 1049 ;
1050 [label="mse = 0.0\nsamples = 1\nvalue = 10796.4"] ;
1049 -> 1050 ;
1051 [label="region_northwest <= 0.5\nmse = 7799.9\nsamples = 2\nvalue = 11235.6"] ;
1049 -> 1051 ;
1052 [label="mse = 0.0\nsamples = 1\nvalue = 11286.5"] ;
1051 -> 1052 ;
1053 [label="mse = -0.0\nsamples = 1\nvalue = 11082.6"] ;
1051 -> 1053 ;
1054 [label="bmi <= 32.2\nmse = 64296.4\nsamples = 6\nvalue = 10271.9"] ;
1048 -> 1054 ;
1055 [label="bmi <= 31.4\nmse = 37258.2\nsamples = 4\nvalue = 10116.8"] ;
1054 -> 1055 ;
1056 [label="region_southeast <= 0.5\nmse = 2687.9\nsamples = 3\nvalue = 10249.9"] ;
1055 -> 1056 ;
1057 [label="region_northwest <= 0.5\nmse = 63.2\nsamples = 2\nvalue = 10220.3"] ;
1056 -> 1057 ;
1058 [label="mse = 0.0\nsamples = 1\nvalue = 10214.6"] ;
1057 -> 1058 ;
1059 [label="mse = -0.0\nsamples = 1\nvalue = 10231.5"] ;
1057 -> 1059 ;
1060 [label="mse = 0.0\nsamples = 1\nvalue = 10338.9"] ;
1056 -> 1060 ;
1061 [label="mse = -0.0\nsamples = 1\nvalue = 9850.4"] ;
1055 -> 1061 ;
1062 [label="bmi <= 34.9\nmse = 14550.2\nsamples = 2\nvalue = 10504.7"] ;
1054 -> 1062 ;
1063 [label="mse = 0.0\nsamples = 1\nvalue = 10435.1"] ;
1062 -> 1063 ;
1064 [label="mse = 0.0\nsamples = 1\nvalue = 10713.6"] ;
1062 -> 1064 ;
1065 [label="bmi <= 22.4\nmse = 138779.4\nsamples = 19\nvalue = 11454.7"] ;
1047 -> 1065 ;
1066 [label="mse = 0.0\nsamples = 1\nvalue = 10577.1"] ;
1065 -> 1066 ;
1067 [label="sex_female <= 0.5\nmse = 91571.5\nsamples = 18\nvalue = 11515.2"] ;
1065 -> 1067 ;
1068 [label="region_northeast <= 0.5\nmse = 56619.9\nsamples = 9\nvalue = 11392.9"] ;
1067 -> 1068 ;
1069 [label="age <= 57.5\nmse = 39790.6\nsamples = 8\nvalue = 11357.0"] ;
1068 -> 1069 ;
1070 [label="bmi <= 33.9\nmse = 36321.4\nsamples = 3\nvalue = 11201.1"] ;
1069 -> 1070 ;
1071 [label="region_northwest <= 0.5\nmse = 71.6\nsamples = 2\nvalue = 10967.8"] ;
1070 -> 1071 ;
1072 [label="mse = 0.0\nsamples = 1\nvalue = 10959.3"] ;
1071 -> 1072 ;
1073 [label="mse = -0.0\nsamples = 1\nvalue = 10976.2"] ;
1071 -> 1073 ;
1074 [label="mse = 0.0\nsamples = 1\nvalue = 11356.7"] ;
1070 -> 1074 ;
1075 [label="region_northwest <= 0.5\nmse = 23307.1\nsamples = 5\nvalue = 11434.9"] ;
1069 -> 1075 ;
1076 [label="bmi <= 29.5\nmse = 57.4\nsamples = 3\nvalue = 11358.6"] ;
1075 -> 1076 ;
1077 [label="mse = 0.0\nsamples = 1\nvalue = 11345.5"] ;
1076 -> 1077 ;
1078 [label="bmi <= 35.9\nmse = 0.1\nsamples = 2\nvalue = 11363.0"] ;
1076 -> 1078 ;
1079 [label="mse = 0.0\nsamples = 1\nvalue = 11362.8"] ;
1078 -> 1079 ;
1080 [label="mse = 0.0\nsamples = 1\nvalue = 11363.3"] ;
1078 -> 1080 ;
1081 [label="bmi <= 31.5\nmse = 16.2\nsamples = 2\nvalue = 11739.9"] ;
1075 -> 1081 ;
1082 [label="mse = 0.0\nsamples = 1\nvalue = 11735.9"] ;
1081 -> 1082 ;
1083 [label="mse = 0.0\nsamples = 1\nvalue = 11743.9"] ;
1081 -> 1083 ;
1084 [label="mse = -0.0\nsamples = 1\nvalue = 11931.1"] ;
1068 -> 1084 ;
1085 [label="age <= 56.5\nmse = 93482.5\nsamples = 9\nvalue = 11665.8"] ;
1067 -> 1085 ;
1086 [label="region_northeast <= 0.5\nmse = 76042.2\nsamples = 4\nvalue = 11463.2"] ;
1085 -> 1086 ;
1087 [label="mse = 0.0\nsamples = 1\nvalue = 11073.2"] ;
1086 -> 1087 ;
1088 [label="bmi <= 28.5\nmse = 0.1\nsamples = 3\nvalue = 11658.2"] ;
1086 -> 1088 ;
1089 [label="mse = 0.0\nsamples = 1\nvalue = 11657.7"] ;
1088 -> 1089 ;
1090 [label="bmi <= 28.7\nmse = 0.0\nsamples = 2\nvalue = 11658.3"] ;
1088 -> 1090 ;
1091 [label="mse = 0.0\nsamples = 1\nvalue = 11658.1"] ;
1090 -> 1091 ;
1092 [label="mse = 0.0\nsamples = 1\nvalue = 11658.4"] ;
1090 -> 1092 ;
1093 [label="bmi <= 32.0\nmse = 43060.3\nsamples = 5\nvalue = 11839.5"] ;
1085 -> 1093 ;
1094 [label="region_southwest <= 0.5\nmse = 20342.2\nsamples = 4\nvalue = 11774.2"] ;
1093 -> 1094 ;
1095 [label="age <= 57.5\nmse = 10.9\nsamples = 2\nvalue = 11838.4"] ;
1094 -> 1095 ;
1096 [label="mse = 0.0\nsamples = 1\nvalue = 11840.8"] ;
1095 -> 1096 ;
1097 [label="mse = -0.0\nsamples = 1\nvalue = 11833.8"] ;
1095 -> 1097 ;
1098 [label="age <= 57.5\nmse = 32407.2\nsamples = 2\nvalue = 11709.9"] ;
1094 -> 1098 ;
1099 [label="mse = 0.0\nsamples = 1\nvalue = 11455.3"] ;
1098 -> 1099 ;
1100 [label="mse = 0.0\nsamples = 1\nvalue = 11837.2"] ;
1098 -> 1100 ;
1101 [label="mse = 0.0\nsamples = 1\nvalue = 12231.6"] ;
1093 -> 1101 ;
1102 [label="age <= 55.5\nmse = 14325048.8\nsamples = 9\nvalue = 13127.6"] ;
1046 -> 1102 ;
1103 [label="mse = 0.0\nsamples = 1\nvalue = 20630.3"] ;
1102 -> 1103 ;
1104 [label="region_northeast <= 0.5\nmse = 8967242.1\nsamples = 8\nvalue = 12293.9"] ;
1102 -> 1104 ;
1105 [label="age <= 57.5\nmse = 131356.3\nsamples = 6\nvalue = 11195.7"] ;
1104 -> 1105 ;
1106 [label="region_southeast <= 0.5\nmse = 40302.4\nsamples = 3\nvalue = 10941.6"] ;
1105 -> 1106 ;
1107 [label="mse = 0.0\nsamples = 1\nvalue = 10602.4"] ;
1106 -> 1107 ;
1108 [label="age <= 56.5\nmse = 2602.6\nsamples = 2\nvalue = 11054.6"] ;
1106 -> 1108 ;
1109 [label="mse = 0.0\nsamples = 1\nvalue = 11090.7"] ;
1108 -> 1109 ;
1110 [label="mse = -0.0\nsamples = 1\nvalue = 10982.5"] ;
1108 -> 1110 ;
1111 [label="sex_female <= 0.5\nmse = 51832.1\nsamples = 3\nvalue = 11534.6"] ;
1105 -> 1111 ;
1112 [label="region_southwest <= 0.5\nmse = 59.1\nsamples = 2\nvalue = 11373.6"] ;
1111 -> 1112 ;
1113 [label="mse = 0.0\nsamples = 1\nvalue = 11381.3"] ;
1112 -> 1113 ;
1114 [label="mse = 0.0\nsamples = 1\nvalue = 11366.0"] ;
1112 -> 1114 ;
1115 [label="mse = -0.0\nsamples = 1\nvalue = 11856.4"] ;
1111 -> 1115 ;
1116 [label="bmi <= 40.6\nmse = 20897332.2\nsamples = 2\nvalue = 16137.7"] ;
1104 -> 1116 ;
1117 [label="mse = 0.0\nsamples = 1\nvalue = 20709.0"] ;
1116 -> 1117 ;
1118 [label="mse = 0.0\nsamples = 1\nvalue = 11566.3"] ;
1116 -> 1118 ;
1119 [label="region_southeast <= 0.5\nmse = 7016746.1\nsamples = 29\nvalue = 14072.5"] ;
1037 -> 1119 ;
1120 [label="age <= 62.5\nmse = 2185813.8\nsamples = 26\nvalue = 13624.2"] ;
1119 -> 1120 ;
1121 [label="region_southwest <= 0.5\nmse = 3270625.8\nsamples = 16\nvalue = 13367.3"] ;
1120 -> 1121 ;
1122 [label="age <= 60.5\nmse = 219873.9\nsamples = 10\nvalue = 12930.3"] ;
1121 -> 1122 ;
1123 [label="bmi <= 25.6\nmse = 79387.5\nsamples = 5\nvalue = 12647.1"] ;
1122 -> 1123 ;
1124 [label="region_northeast <= 0.5\nmse = 9966.0\nsamples = 2\nvalue = 12423.8"] ;
1123 -> 1124 ;
1125 [label="mse = 0.0\nsamples = 1\nvalue = 12523.6"] ;
1124 -> 1125 ;
1126 [label="mse = 0.0\nsamples = 1\nvalue = 12323.9"] ;
1124 -> 1126 ;
1127 [label="bmi <= 33.7\nmse = 49035.2\nsamples = 3\nvalue = 12870.5"] ;
1123 -> 1127 ;
1128 [label="region_northeast <= 0.5\nmse = 8299.9\nsamples = 2\nvalue = 12751.0"] ;
1127 -> 1128 ;
1129 [label="mse = 0.0\nsamples = 1\nvalue = 12622.2"] ;
1128 -> 1129 ;
1130 [label="mse = 0.0\nsamples = 1\nvalue = 12815.4"] ;
1128 -> 1130 ;
1131 [label="mse = 0.0\nsamples = 1\nvalue = 13228.8"] ;
1127 -> 1131 ;
1132 [label="bmi <= 32.6\nmse = 157716.5\nsamples = 5\nvalue = 13307.9"] ;
1122 -> 1132 ;
1133 [label="age <= 61.5\nmse = 45607.9\nsamples = 2\nvalue = 13829.9"] ;
1132 -> 1133 ;
1134 [label="mse = 0.0\nsamples = 1\nvalue = 13616.4"] ;
1133 -> 1134 ;
1135 [label="mse = 0.0\nsamples = 1\nvalue = 14043.5"] ;
1133 -> 1135 ;
1136 [label="bmi <= 36.1\nmse = 9363.5\nsamples = 3\nvalue = 13046.8"] ;
1132 -> 1136 ;
1137 [label="bmi <= 33.7\nmse = 0.1\nsamples = 2\nvalue = 13143.6"] ;
1136 -> 1137 ;
1138 [label="mse = 0.0\nsamples = 1\nvalue = 13143.3"] ;
1137 -> 1138 ;
1139 [label="mse = -0.0\nsamples = 1\nvalue = 13143.9"] ;
1137 -> 1139 ;
1140 [label="mse = 0.0\nsamples = 1\nvalue = 12950.1"] ;
1136 -> 1140 ;
1141 [label="age <= 60.0\nmse = 6899907.6\nsamples = 6\nvalue = 13979.2"] ;
1121 -> 1141 ;
1142 [label="mse = 0.0\nsamples = 1\nvalue = 21797.0"] ;
1141 -> 1142 ;
1143 [label="sex_female <= 0.5\nmse = 121116.8\nsamples = 5\nvalue = 13110.5"] ;
1141 -> 1143 ;
1144 [label="bmi <= 40.4\nmse = 41069.0\nsamples = 2\nvalue = 12776.7"] ;
1143 -> 1144 ;
1145 [label="mse = 0.0\nsamples = 1\nvalue = 12979.4"] ;
1144 -> 1145 ;
1146 [label="mse = -0.0\nsamples = 1\nvalue = 12574.0"] ;
1144 -> 1146 ;
1147 [label="age <= 61.5\nmse = 24666.6\nsamples = 3\nvalue = 13377.6"] ;
1143 -> 1147 ;
1148 [label="mse = 0.0\nsamples = 1\nvalue = 13063.9"] ;
1147 -> 1148 ;
1149 [label="bmi <= 32.1\nmse = 73.1\nsamples = 2\nvalue = 13456.1"] ;
1147 -> 1149 ;
1150 [label="mse = 0.0\nsamples = 1\nvalue = 13451.1"] ;
1149 -> 1150 ;
1151 [label="mse = 0.0\nsamples = 1\nvalue = 13470.9"] ;
1149 -> 1151 ;
1152 [label="region_southwest <= 0.5\nmse = 175592.8\nsamples = 10\nvalue = 14035.2"] ;
1120 -> 1152 ;
1153 [label="age <= 63.5\nmse = 85376.5\nsamples = 8\nvalue = 14229.5"] ;
1152 -> 1153 ;
1154 [label="bmi <= 27.3\nmse = 61584.9\nsamples = 5\nvalue = 14034.1"] ;
1153 -> 1154 ;
1155 [label="bmi <= 24.7\nmse = 9569.7\nsamples = 2\nvalue = 14354.0"] ;
1154 -> 1155 ;
1156 [label="mse = 0.0\nsamples = 1\nvalue = 14451.8"] ;
1155 -> 1156 ;
1157 [label="mse = 0.0\nsamples = 1\nvalue = 14256.2"] ;
1155 -> 1157 ;
1158 [label="bmi <= 29.9\nmse = 10828.5\nsamples = 3\nvalue = 13874.1"] ;
1154 -> 1158 ;
1159 [label="mse = 0.0\nsamples = 1\nvalue = 13770.1"] ;
1158 -> 1159 ;
1160 [label="bmi <= 34.1\nmse = 13.7\nsamples = 2\nvalue = 13978.2"] ;
1158 -> 1160 ;
1161 [label="mse = 0.0\nsamples = 1\nvalue = 13974.5"] ;
1160 -> 1161 ;
1162 [label="mse = 0.0\nsamples = 1\nvalue = 13981.8"] ;
1160 -> 1162 ;
1163 [label="region_northeast <= 0.5\nmse = 13112.2\nsamples = 3\nvalue = 14464.0"] ;
1153 -> 1163 ;
1164 [label="mse = 0.0\nsamples = 1\nvalue = 14692.7"] ;
1163 -> 1164 ;
1165 [label="bmi <= 32.3\nmse = 50.2\nsamples = 2\nvalue = 14406.8"] ;
1163 -> 1165 ;
1166 [label="mse = 0.0\nsamples = 1\nvalue = 14394.6"] ;
1165 -> 1166 ;
1167 [label="mse = 0.0\nsamples = 1\nvalue = 14410.9"] ;
1165 -> 1167 ;
1168 [label="bmi <= 33.8\nmse = 34514.1\nsamples = 2\nvalue = 13501.0"] ;
1152 -> 1168 ;
1169 [label="mse = 0.0\nsamples = 1\nvalue = 13393.8"] ;
1168 -> 1169 ;
1170 [label="mse = -0.0\nsamples = 1\nvalue = 13822.8"] ;
1168 -> 1170 ;
1171 [label="bmi <= 28.3\nmse = 28621837.2\nsamples = 3\nvalue = 16986.2"] ;
1119 -> 1171 ;
1172 [label="mse = 0.0\nsamples = 1\nvalue = 24513.1"] ;
1171 -> 1172 ;
1173 [label="bmi <= 34.2\nmse = 442464.4\nsamples = 2\nvalue = 13222.8"] ;
1171 -> 1173 ;
1174 [label="mse = 0.0\nsamples = 1\nvalue = 12557.6"] ;
1173 -> 1174 ;
1175 [label="mse = -0.0\nsamples = 1\nvalue = 13888.0"] ;
1173 -> 1175 ;
1176 [label="age <= 54.5\nmse = 46116770.4\nsamples = 46\nvalue = 15126.1"] ;
1036 -> 1176 ;
1177 [label="region_northeast <= 0.5\nmse = 21311432.6\nsamples = 16\nvalue = 12571.7"] ;
1176 -> 1177 ;
1178 [label="children <= 2.5\nmse = 221707.1\nsamples = 13\nvalue = 11104.6"] ;
1177 -> 1178 ;
1179 [label="sex_female <= 0.5\nmse = 97744.6\nsamples = 10\nvalue = 10927.8"] ;
1178 -> 1179 ;
1180 [label="region_southwest <= 0.5\nmse = 131239.0\nsamples = 4\nvalue = 10674.9"] ;
1179 -> 1180 ;
1181 [label="children <= 1.5\nmse = 7892.7\nsamples = 2\nvalue = 10950.9"] ;
1180 -> 1181 ;
1182 [label="mse = 0.0\nsamples = 1\nvalue = 10825.2"] ;
1181 -> 1182 ;
1183 [label="mse = 0.0\nsamples = 1\nvalue = 11013.7"] ;
1181 -> 1183 ;
1184 [label="age <= 53.5\nmse = 30668.8\nsamples = 2\nvalue = 10261.0"] ;
1180 -> 1184 ;
1185 [label="mse = 0.0\nsamples = 1\nvalue = 10085.8"] ;
1184 -> 1185 ;
1186 [label="mse = -0.0\nsamples = 1\nvalue = 10436.1"] ;
1184 -> 1186 ;
1187 [label="region_southeast <= 0.5\nmse = 23874.4\nsamples = 6\nvalue = 11068.3"] ;
1179 -> 1187 ;
1188 [label="age <= 53.5\nmse = 21229.6\nsamples = 5\nvalue = 11138.0"] ;
1187 -> 1188 ;
1189 [label="children <= 1.5\nmse = 10695.3\nsamples = 4\nvalue = 11054.0"] ;
1188 -> 1189 ;
1190 [label="bmi <= 31.1\nmse = 77.1\nsamples = 2\nvalue = 10950.9"] ;
1189 -> 1190 ;
1191 [label="mse = 0.0\nsamples = 1\nvalue = 10942.1"] ;
1190 -> 1191 ;
1192 [label="mse = 0.0\nsamples = 1\nvalue = 10959.7"] ;
1190 -> 1192 ;
1193 [label="bmi <= 31.3\nmse = 40.9\nsamples = 2\nvalue = 11157.2"] ;
1189 -> 1193 ;
1194 [label="mse = 0.0\nsamples = 1\nvalue = 11150.8"] ;
1193 -> 1194 ;
1195 [label="mse = 0.0\nsamples = 1\nvalue = 11163.6"] ;
1193 -> 1195 ;
1196 [label="mse = 0.0\nsamples = 1\nvalue = 11305.9"] ;
1188 -> 1196 ;
1197 [label="mse = -0.0\nsamples = 1\nvalue = 10928.8"] ;
1187 -> 1197 ;
1198 [label="region_southwest <= 0.5\nmse = 236396.6\nsamples = 3\nvalue = 11599.5"] ;
1178 -> 1198 ;
1199 [label="mse = 0.0\nsamples = 1\nvalue = 12495.3"] ;
1198 -> 1199 ;
1200 [label="bmi <= 28.4\nmse = 44708.7\nsamples = 2\nvalue = 11375.5"] ;
1198 -> 1200 ;
1201 [label="mse = 0.0\nsamples = 1\nvalue = 11741.7"] ;
1200 -> 1201 ;
1202 [label="mse = -0.0\nsamples = 1\nvalue = 11253.4"] ;
1200 -> 1202 ;
1203 [label="bmi <= 24.6\nmse = 62695653.8\nsamples = 3\nvalue = 19540.7"] ;
1177 -> 1203 ;
1204 [label="mse = 0.0\nsamples = 1\nvalue = 11729.7"] ;
1203 -> 1204 ;
1205 [label="age <= 53.5\nmse = 3366069.0\nsamples = 2\nvalue = 27351.8"] ;
1203 -> 1205 ;
1206 [label="mse = 0.0\nsamples = 1\nvalue = 29186.5"] ;
1205 -> 1206 ;
1207 [label="mse = 0.0\nsamples = 1\nvalue = 25517.1"] ;
1205 -> 1207 ;
1208 [label="age <= 55.5\nmse = 53625712.1\nsamples = 30\nvalue = 16403.3"] ;
1176 -> 1208 ;
1209 [label="bmi <= 28.2\nmse = 109429095.1\nsamples = 6\nvalue = 20798.4"] ;
1208 -> 1209 ;
1210 [label="mse = 0.0\nsamples = 1\nvalue = 35160.1"] ;
1209 -> 1210 ;
1211 [label="bmi <= 36.5\nmse = 77725807.7\nsamples = 5\nvalue = 17606.9"] ;
1209 -> 1211 ;
1212 [label="children <= 1.5\nmse = 212656.2\nsamples = 4\nvalue = 11378.6"] ;
1211 -> 1212 ;
1213 [label="region_southeast <= 0.5\nmse = 86019.0\nsamples = 2\nvalue = 11100.8"] ;
1212 -> 1213 ;
1214 [label="mse = 0.0\nsamples = 1\nvalue = 11394.1"] ;
1213 -> 1214 ;
1215 [label="mse = 0.0\nsamples = 1\nvalue = 10807.5"] ;
1213 -> 1215 ;
1216 [label="sex_female <= 0.5\nmse = 2798.9\nsamples = 2\nvalue = 11934.3"] ;
1212 -> 1216 ;
1217 [label="mse = 0.0\nsamples = 1\nvalue = 11987.2"] ;
1216 -> 1217 ;
1218 [label="mse = 0.0\nsamples = 1\nvalue = 11881.4"] ;
1216 -> 1218 ;
1219 [label="mse = 0.0\nsamples = 1\nvalue = 30063.6"] ;
1211 -> 1219 ;
1220 [label="age <= 58.0\nmse = 28108422.6\nsamples = 24\nvalue = 15022.0"] ;
1208 -> 1220 ;
1221 [label="children <= 1.5\nmse = 613938.9\nsamples = 10\nvalue = 12286.8"] ;
1220 -> 1221 ;
1222 [label="bmi <= 27.3\nmse = 49919.6\nsamples = 5\nvalue = 11765.7"] ;
1221 -> 1222 ;
1223 [label="bmi <= 23.4\nmse = 32.1\nsamples = 2\nvalue = 12036.3"] ;
1222 -> 1223 ;
1224 [label="mse = 0.0\nsamples = 1\nvalue = 12032.3"] ;
1223 -> 1224 ;
1225 [label="mse = 0.0\nsamples = 1\nvalue = 12044.3"] ;
1223 -> 1225 ;
1226 [label="region_northwest <= 0.5\nmse = 19916.2\nsamples = 3\nvalue = 11630.3"] ;
1222 -> 1226 ;
1227 [label="region_southwest <= 0.5\nmse = 115.2\nsamples = 2\nvalue = 11567.4"] ;
1226 -> 1227 ;
1228 [label="mse = 0.0\nsamples = 1\nvalue = 11554.2"] ;
1227 -> 1228 ;
1229 [label="mse = 0.0\nsamples = 1\nvalue = 11576.1"] ;
1227 -> 1229 ;
1230 [label="mse = 0.0\nsamples = 1\nvalue = 11945.1"] ;
1226 -> 1230 ;
1231 [label="region_southeast <= 0.5\nmse = 441416.3\nsamples = 5\nvalue = 13068.6"] ;
1221 -> 1231 ;
1232 [label="children <= 3.0\nmse = 342423.9\nsamples = 2\nvalue = 13809.2"] ;
1231 -> 1232 ;
1233 [label="mse = 0.0\nsamples = 1\nvalue = 13224.1"] ;
1232 -> 1233 ;
1234 [label="mse = 0.0\nsamples = 1\nvalue = 14394.4"] ;
1232 -> 1234 ;
1235 [label="sex_female <= 0.5\nmse = 79486.9\nsamples = 3\nvalue = 12698.2"] ;
1231 -> 1235 ;
1236 [label="mse = 0.0\nsamples = 1\nvalue = 12949.2"] ;
1235 -> 1236 ;
1237 [label="age <= 56.5\nmse = 33062.1\nsamples = 2\nvalue = 12447.3"] ;
1235 -> 1237 ;
1238 [label="mse = 0.0\nsamples = 1\nvalue = 12265.5"] ;
1237 -> 1238 ;
1239 [label="mse = -0.0\nsamples = 1\nvalue = 12629.2"] ;
1237 -> 1239 ;
1240 [label="children <= 2.5\nmse = 38910265.4\nsamples = 14\nvalue = 17073.4"] ;
1220 -> 1240 ;
1241 [label="age <= 60.0\nmse = 65280567.5\nsamples = 8\nvalue = 19516.1"] ;
1240 -> 1241 ;
1242 [label="mse = 0.0\nsamples = 1\nvalue = 36910.6"] ;
1241 -> 1242 ;
1243 [label="bmi <= 33.3\nmse = 35179666.0\nsamples = 7\nvalue = 17583.4"] ;
1241 -> 1243 ;
1244 [label="age <= 63.5\nmse = 48173537.7\nsamples = 4\nvalue = 20177.4"] ;
1243 -> 1244 ;
1245 [label="region_northwest <= 0.5\nmse = 29034335.8\nsamples = 3\nvalue = 17680.1"] ;
1244 -> 1245 ;
1246 [label="mse = 0.0\nsamples = 1\nvalue = 27001.0"] ;
1245 -> 1246 ;
1247 [label="age <= 62.5\nmse = 99728.8\nsamples = 2\nvalue = 14573.2"] ;
1245 -> 1247 ;
1248 [label="mse = 0.0\nsamples = 1\nvalue = 15019.8"] ;
1247 -> 1248 ;
1249 [label="mse = 0.0\nsamples = 1\nvalue = 14349.8"] ;
1247 -> 1249 ;
1250 [label="mse = 0.0\nsamples = 1\nvalue = 30166.6"] ;
1244 -> 1250 ;
1251 [label="children <= 1.5\nmse = 11570.5\nsamples = 3\nvalue = 14340.8"] ;
1243 -> 1251 ;
1252 [label="bmi <= 37.2\nmse = 795.0\nsamples = 2\nvalue = 14446.5"] ;
1251 -> 1252 ;
1253 [label="mse = 0.0\nsamples = 1\nvalue = 14474.7"] ;
1252 -> 1253 ;
1254 [label="mse = -0.0\nsamples = 1\nvalue = 14418.3"] ;
1252 -> 1254 ;
1255 [label="mse = 0.0\nsamples = 1\nvalue = 14235.1"] ;
1251 -> 1255 ;
1256 [label="age <= 60.5\nmse = 606401.5\nsamples = 6\nvalue = 14630.7"] ;
1240 -> 1256 ;
1257 [label="region_northeast <= 0.5\nmse = 50484.9\nsamples = 4\nvalue = 14142.5"] ;
1256 -> 1257 ;
